{"learner":{"attributes":{"best_iteration":"233","best_score":"0.9981534217914015"},"feature_names":["open","high","low","close","volume","volume_zscore","price_gap_pct","true_range","rolling_volatility","circuit_breaker"],"feature_types":["float","float","float","float","int","float","float","float","float","int"],"gradient_booster":{"model":{"gbtree_model_param":{"num_parallel_tree":"1","num_trees":"264"},"iteration_indptr":[0,1,2,3,4,5,6,7,8,9,10,11,12,13,14,15,16,17,18,19,20,21,22,23,24,25,26,27,28,29,30,31,32,33,34,35,36,37,38,39,40,41,42,43,44,45,46,47,48,49,50,51,52,53,54,55,56,57,58,59,60,61,62,63,64,65,66,67,68,69,70,71,72,73,74,75,76,77,78,79,80,81,82,83,84,85,86,87,88,89,90,91,92,93,94,95,96,97,98,99,100,101,102,103,104,105,106,107,108,109,110,111,112,113,114,115,116,117,118,119,120,121,122,123,124,125,126,127,128,129,130,131,132,133,134,135,136,137,138,139,140,141,142,143,144,145,146,147,148,149,150,151,152,153,154,155,156,157,158,159,160,161,162,163,164,165,166,167,168,169,170,171,172,173,174,175,176,177,178,179,180,181,182,183,184,185,186,187,188,189,190,191,192,193,194,195,196,197,198,199,200,201,202,203,204,205,206,207,208,209,210,211,212,213,214,215,216,217,218,219,220,221,222,223,224,225,226,227,228,229,230,231,232,233,234,235,236,237,238,239,240,241,242,243,244,245,246,247,248,249,250,251,252,253,254,255,256,257,258,259,260,261,262,263,264],"tree_info":[0,0,0,0,0,0,0,0,0,0,0,0,0,0,0,0,0,0,0,0,0,0,0,0,0,0,0,0,0,0,0,0,0,0,0,0,0,0,0,0,0,0,0,0,0,0,0,0,0,0,0,0,0,0,0,0,0,0,0,0,0,0,0,0,0,0,0,0,0,0,0,0,0,0,0,0,0,0,0,0,0,0,0,0,0,0,0,0,0,0,0,0,0,0,0,0,0,0,0,0,0,0,0,0,0,0,0,0,0,0,0,0,0,0,0,0,0,0,0,0,0,0,0,0,0,0,0,0,0,0,0,0,0,0,0,0,0,0,0,0,0,0,0,0,0,0,0,0,0,0,0,0,0,0,0,0,0,0,0,0,0,0,0,0,0,0,0,0,0,0,0,0,0,0,0,0,0,0,0,0,0,0,0,0,0,0,0,0,0,0,0,0,0,0,0,0,0,0,0,0,0,0,0,0,0,0,0,0,0,0,0,0,0,0,0,0,0,0,0,0,0,0,0,0,0,0,0,0,0,0,0,0,0,0,0,0,0,0,0,0,0,0,0,0,0,0,0,0,0,0,0,0,0,0,0,0,0,0,0,0,0,0,0,0],"trees":[{"base_weights":[4.984664E-3,1.9782557E0,-1.5445114E0,1.9944243E0,-9.839156E-1,-9.9993534E-2,9.9949695E-2,-6.666667E-2,9.9750526E-2,-9.8230086E-2,9.488992E-2],"categories":[],"categories_nodes":[],"categories_segments":[],"categories_sizes":[],"default_left":[0,0,0,0,0,0,0,0,0,0,0],"id":0,"left_children":[1,3,5,7,9,-1,-1,-1,-1,-1,-1],"loss_changes":[9.526688E4,6.5834375E2,2.816543E4,2.9242188E1,2.158781E2,0E0,0E0,0E0,0E0,0E0,0E0],"parents":[2147483647,0,0,1,1,2,2,3,3,4,4],"right_children":[2,4,6,8,10,-1,-1,-1,-1,-1,-1],"split_conditions":[-3.4534708E-2,1E0,1E0,5.7701597E0,9.997E3,-9.9993534E-2,9.9949695E-2,-6.666667E-2,9.9750526E-2,-9.8230086E-2,9.488992E-2],"split_indices":[6,9,9,8,4,0,0,0,0,0,0],"split_type":[0,0,0,0,0,0,0,0,0,0,0],"sum_hessian":[3.1155652E4,1.3703754E4,1.7451898E4,1.3629685E4,7.4069145E1,1.5465E4,1.9868987E3,2E0,1.3627685E4,5.55E1,1.8569147E1],"tree_param":{"num_deleted":"0","num_feature":"10","num_nodes":"11","size_leaf_vector":"1"}},{"base_weights":[-1.2633154E-3,1.8843868E0,-1.4797391E0,1.8995107E0,-9.239069E-1,-9.523602E-2,9.51952E-2,-7.150894E-2,9.501444E-2,-9.360043E-2,9.058444E-2],"categories":[],"categories_nodes":[],"categories_segments":[],"categories_sizes":[],"default_left":[0,0,0,0,0,0,0,0,0,0,0],"id":1,"left_children":[1,3,5,7,9,-1,-1,-1,-1,-1,-1],"loss_changes":[8.671484E4,5.8233984E2,2.507404E4,3.7941406E1,1.9505022E2,0E0,0E0,0E0,0E0,0E0,0E0],"parents":[2147483647,0,0,1,1,2,2,3,3,4,4],"right_children":[2,4,6,8,10,-1,-1,-1,-1,-1,-1],"split_conditions":[-3.4534708E-2,1E0,1E0,6.988849E0,9.322065E-1,-9.523602E-2,9.51952E-2,-7.150894E-2,9.501444E-2,-9.360043E-2,9.058444E-2],"split_indices":[6,9,9,8,5,0,0,0,0,0,0],"split_type":[0,0,0,0,0,0,0,0,0,0,0],"sum_hessian":[3.1102135E4,1.3668735E4,1.74334E4,1.359584E4,7.289616E1,1.54885E4,1.944899E3,2.7466033E0,1.3593093E4,5.4368744E1,1.852741E1],"tree_param":{"num_deleted":"0","num_feature":"10","num_nodes":"11","size_leaf_vector":"1"}},{"base_weights":[-1.4233316E-2,-7.799765E-1,9.104327E-2,-9.126946E-1,1.6546992E0,-9.9499637E-1,6.9672775E-1,1.6747398E0,7.6804966E-1,-1.8015548E0,-9.1955954E-1,-4.2477742E-1,9.2423767E-1,1.2908748E0,8.405485E-2,7.779828E-2,-7.8583024E-2,-9.107823E-2,-1.5538839E0,-8.014018E-1,-1.6255898E0,9.062473E-1,-9.0098605E-2,9.0756685E-2,5.802531E-1,8.419522E-2,-6.502309E-2,-1.1977639E-2,-9.0305366E-2,-4.3964095E-2,4.2041592E-2,-9.0272315E-2,-4.688641E-2,-8.547387E-2,7.4110314E-2,-9.0129636E-2,5.015246E-2],"categories":[],"categories_nodes":[],"categories_segments":[],"categories_sizes":[],"default_left":[0,0,0,0,0,0,0,0,0,0,0,0,0,0,0,0,0,0,0,0,0,0,0,0,0,0,0,0,0,0,0,0,0,0,0,0,0],"id":2,"left_children":[1,3,-1,5,7,9,11,13,15,17,19,21,23,25,-1,-1,-1,-1,27,29,31,33,-1,-1,35,-1,-1,-1,-1,-1,-1,-1,-1,-1,-1,-1,-1],"loss_changes":[4.3091723E4,6.992968E3,0E0,2.718623E3,1.8594482E1,1.1861016E3,2.5524915E2,4.9780273E-1,5.1440357E1,5.4384766E0,1.4881035E3,3.1167603E2,2.53518E2,2.4716747E1,0E0,0E0,0E0,0E0,4.3172607E1,1.9570674E3,3.1484424E2,1.3311548E2,0E0,0E0,6.0706E2,0E0,0E0,0E0,0E0,0E0,0E0,0E0,0E0,0E0,0E0,0E0,0E0],"parents":[2147483647,0,0,1,1,3,3,4,4,5,5,6,6,7,7,8,8,9,9,10,10,11,11,12,12,13,13,18,18,19,19,20,20,21,21,24,24],"right_children":[2,4,-1,6,8,10,12,14,16,18,20,22,24,26,-1,-1,-1,-1,28,30,32,34,-1,-1,36,-1,-1,-1,-1,-1,-1,-1,-1,-1,-1,-1,-1],"split_conditions":[9.322065E-1,1E0,9.104327E-2,2.377931E5,3.3635547E5,8.266118E0,5.5269945E6,-1.0217154E0,-5.252913E-1,7.621967E0,2.343786E6,4.726905E6,5.5165375E6,-1.0941364E0,8.405485E-2,7.779828E-2,-7.8583024E-2,-9.107823E-2,3.23721E0,5.832452E4,1.6260414E5,4.588205E6,-9.0098605E-2,9.0756685E-2,6.5866345E6,8.419522E-2,-6.502309E-2,-1.1977639E-2,-9.0305366E-2,-4.3964095E-2,4.2041592E-2,-9.0272315E-2,-4.688641E-2,-8.547387E-2,7.4110314E-2,-9.0129636E-2,5.015246E-2],"split_indices":[5,9,0,8,8,8,3,5,5,8,0,0,1,5,0,0,0,0,7,8,8,3,0,0,3,0,0,0,0,0,0,0,0,0,0,0,0],"split_type":[0,0,0,0,0,0,0,0,0,0,0,0,0,0,0,0,0,0,0,0,0,0,0,0,0,0,0,0,0,0,0,0,0,0,0,0,0],"sum_hessian":[3.0663578E4,2.1635973E4,9.027604E3,2.0518123E4,1.1178508E3,1.9520287E4,9.978362E2,1.0922737E3,2.5577187E1,1.6676074E3,1.785268E4,1.6813774E2,8.296984E2,2.1118334E1,1.0711553E3,1.9384335E1,6.1928525E0,1.5370703E3,1.305372E2,1.5295102E4,2.5575771E3,8.567597E1,8.246176E1,2.2992694E2,5.997715E2,1.8641193E1,2.477141E0,2.1331089E1,1.0920611E2,1.4603043E4,6.920592E2,2.026167E3,5.3141016E2,1.5105606E1,7.0570366E1,8.989074E1,5.0988074E2],"tree_param":{"num_deleted":"0","num_feature":"10","num_nodes":"37","size_leaf_vector":"1"}},{"base_weights":[-4.684022E-3,1.7683796E0,-1.3648481E0,1.7829393E0,-9.271833E-1,-8.898771E-2,8.7684475E-2,-6.18877E-2,1.7835417E0,7.066155E-1,-9.1764994E-2,8.8533886E-2,9.1200724E-2,1.2255658E0,-7.544014E-2,-6.866896E-2,8.334624E-2],"categories":[],"categories_nodes":[],"categories_segments":[],"categories_sizes":[],"default_left":[0,0,0,0,0,0,0,0,0,0,0,0,0,0,0,0,0],"id":3,"left_children":[1,3,5,7,9,-1,-1,-1,11,13,-1,-1,-1,15,-1,-1,-1],"loss_changes":[7.3689375E4,5.222383E2,2.237602E4,2.6210938E1,1.08001526E2,0E0,0E0,0E0,3.6445312E0,3.2218876E1,0E0,0E0,0E0,2.7472038E1,0E0,0E0,0E0],"parents":[2147483647,0,0,1,1,2,2,3,3,4,4,8,8,9,9,13,13],"right_children":[2,4,6,8,10,-1,-1,-1,12,14,-1,-1,-1,16,-1,-1,-1],"split_conditions":[-3.4534708E-2,1E0,1E0,5.7701597E0,-1.752123E-1,-8.898771E-2,8.7684475E-2,-6.18877E-2,-1.4294113E-1,2.3586904E3,-9.1764994E-2,8.8533886E-2,9.1200724E-2,2.1407961E3,-7.544014E-2,-6.866896E-2,8.334624E-2],"split_indices":[6,9,9,8,6,0,0,0,6,0,0,0,0,0,0,0,0],"split_type":[0,0,0,0,0,0,0,0,0,0,0,0,0,0,0,0,0],"sum_hessian":[3.0553486E4,1.3263431E4,1.7290057E4,1.3192512E4,7.0918945E1,1.5260192E4,2.029864E3,2.2206936E0,1.3190291E4,2.5415548E1,4.55034E1,1.0042958E4,3.147333E3,2.0953987E1,4.461561E0,2.735322E0,1.8218664E1],"tree_param":{"num_deleted":"0","num_feature":"10","num_nodes":"17","size_leaf_vector":"1"}},{"base_weights":[-9.53707E-3,1.701278E0,-1.3370385E0,-6.0092665E-2,1.7018551E0,-1.4986405E0,8.330225E-2,8.621054E-2,8.4393695E-2,-1.5169145E0,-1.2122422E0,-1.4974457E0,-8.432757E-2,-9.1100895E-1,-1.5229077E0,-1.5161145E0,-1.1484643E0,7.0088696E-1,-9.97648E-1,-8.56505E-2,-1.2190039E0,-7.854303E-2,-7.3303774E-2,-1.4636072E-2,-6.336569E-2,-7.5157784E-2,6.792457E-2,-3.74076E-2,-6.9377854E-2,3.3015333E-2,-6.7956775E-2],"categories":[],"categories_nodes":[],"categories_segments":[],"categories_sizes":[],"default_left":[0,0,0,0,0,0,0,0,0,0,0,0,0,0,0,0,0,0,0,0,0,0,0,0,0,0,0,0,0,0,0],"id":4,"left_children":[1,3,5,-1,7,9,-1,-1,-1,11,13,15,-1,17,19,21,23,25,27,-1,29,-1,-1,-1,-1,-1,-1,-1,-1,-1,-1],"loss_changes":[6.8430836E4,2.4105469E1,8.236256E3,0E0,1.203125E0,8.2421875E1,0E0,0E0,0E0,4.744922E1,8.9449585E1,8.674219E1,0E0,6.9869446E1,2.5432495E1,3.3007812E1,7.0190796E1,3.951112E1,4.4727417E1,0E0,5.0085938E1,0E0,0E0,0E0,0E0,0E0,0E0,0E0,0E0,0E0,0E0],"parents":[2147483647,0,0,1,1,2,2,4,4,5,5,9,9,10,10,11,11,13,13,14,14,15,15,16,16,17,17,18,18,20,20],"right_children":[2,4,6,-1,8,10,-1,-1,-1,12,14,16,-1,18,20,22,24,26,28,-1,30,-1,-1,-1,-1,-1,-1,-1,-1,-1,-1],"split_conditions":[-3.4534708E-2,5.5460825E0,9.997E3,-6.0092665E-2,9.339E3,1.5148784E5,8.330225E-2,8.621054E-2,8.4393695E-2,3.9448175E6,-1.3312887E-3,3.9488977E4,-8.432757E-2,1.9318599E6,9.784307E-3,4.89E3,1.1818881E6,1.868921E6,6.6703945E6,-8.56505E-2,9.963216E-3,-7.854303E-2,-7.3303774E-2,-1.4636072E-2,-6.336569E-2,-7.5157784E-2,6.792457E-2,-3.74076E-2,-6.9377854E-2,3.3015333E-2,-6.7956775E-2],"split_indices":[6,8,4,0,4,8,0,0,0,0,6,8,0,0,6,4,0,0,0,0,6,0,0,0,0,0,0,0,0,0,0],"split_type":[0,0,0,0,0,0,0,0,0,0,0,0,0,0,0,0,0,0,0,0,0,0,0,0,0,0,0,0,0,0,0],"sum_hessian":[3.0129018E4,1.316385E4,1.6965168E4,2.2029862E0,1.3161646E4,1.6099331E4,8.658369E2,5.017096E3,8.1445503E3,1.5129671E4,9.696599E2,1.3580861E4,1.5488102E3,4.943E2,4.7535995E2,1.288807E4,6.9279114E2,2.4851671E1,4.694483E2,2.895806E2,1.8577936E2,6.1400493E3,6.7480205E3,8.490673E1,6.078844E2,5.415418E0,1.9436253E1,2.8804932E2,1.81399E2,1.2633877E1,1.7314548E2],"tree_param":{"num_deleted":"0","num_feature":"10","num_nodes":"31","size_leaf_vector":"1"}},{"base_weights":[-1.0617603E-2,1.6415297E0,-1.2693251E0,1.6558627E0,-1.3439522E0,-8.3074726E-2,1.6895047E0,1.6918815E0,8.159921E-2,-9.2103444E-2,7.372602E-2,8.70205E-2,8.15662E-2,8.5304745E-2,1.6493243E0,-5.111279E-2,8.265614E-2],"categories":[],"categories_nodes":[],"categories_segments":[],"categories_sizes":[],"default_left":[0,0,0,0,0,0,0,0,0,0,0,0,0,0,0,0,0],"id":5,"left_children":[1,3,5,7,9,-1,11,13,-1,-1,-1,-1,-1,-1,15,-1,-1],"loss_changes":[6.1674797E4,5.509922E2,1.953522E4,8.21875E0,8.9516335E1,0E0,2.9970703E0,2.4804688E-1,0E0,0E0,0E0,0E0,0E0,0E0,1.4853516E1,0E0,0E0],"parents":[2147483647,0,0,1,1,2,2,3,3,4,4,6,6,7,7,14,14],"right_children":[2,4,6,8,10,-1,12,14,-1,-1,-1,-1,-1,-1,16,-1,-1],"split_conditions":[-3.4534708E-2,1E0,1E0,9.997E3,9.997E3,-8.3074726E-2,9.997E3,-1.282133E-1,8.159921E-2,-9.2103444E-2,7.372602E-2,8.70205E-2,8.15662E-2,8.5304745E-2,2.4249834E2,-5.111279E-2,8.265614E-2],"split_indices":[6,9,9,4,4,0,4,6,0,0,0,0,0,0,3,0,0],"split_type":[0,0,0,0,0,0,0,0,0,0,0,0,0,0,0,0,0],"sum_hessian":[2.9655473E4,1.2823444E4,1.683203E4,1.2762617E4,6.0826626E1,1.4862554E4,1.969475E3,5.060055E3,7.702562E3,5.1985508E1,8.84112E0,1.0349952E3,9.3447974E2,3.7638904E3,1.2961646E3,1.4596207E0,1.294705E3],"tree_param":{"num_deleted":"0","num_feature":"10","num_nodes":"17","size_leaf_vector":"1"}},{"base_weights":[1.1792648E-2,1.5895395E0,-1.2253306E0,1.6032175E0,-9.338193E-1,-8.044066E-2,1.6387467E0,-6.268148E-2,1.6039085E0,-8.8143006E-2,7.544447E-2,8.3948046E-2,7.907779E-2,8.1853144E-2,7.912683E-2],"categories":[],"categories_nodes":[],"categories_segments":[],"categories_sizes":[],"default_left":[0,0,0,0,0,0,0,0,0,0,0,0,0,0,0],"id":6,"left_children":[1,3,5,7,9,-1,11,-1,13,-1,-1,-1,-1,-1,-1],"loss_changes":[5.747071E4,4.4812305E2,1.8128797E4,2.7425781E1,1.4522345E2,0E0,1.8276367E0,0E0,6.5273438E0,0E0,0E0,0E0,0E0,0E0,0E0],"parents":[2147483647,0,0,1,1,2,2,3,3,4,4,6,6,8,8],"right_children":[2,4,6,8,10,-1,12,-1,14,-1,-1,-1,-1,-1,-1],"split_conditions":[-3.4534708E-2,1E0,1E0,5.7701597E0,9.997E3,-8.044066E-2,9.887E3,-6.268148E-2,9.844E3,-8.8143006E-2,7.544447E-2,8.3948046E-2,7.907779E-2,8.1853144E-2,7.912683E-2],"split_indices":[6,9,9,8,4,0,4,0,4,0,0,0,0,0,0],"split_type":[0,0,0,0,0,0,0,0,0,0,0,0,0,0,0],"sum_hessian":[2.9441967E4,1.2939491E4,1.6502475E4,1.2870094E4,6.939806E1,1.4554194E4,1.9482803E3,2.674419E0,1.2867419E4,5.2020824E1,1.7377241E1,1.1272733E3,8.2100696E2,5.0138647E3,7.8535547E3],"tree_param":{"num_deleted":"0","num_feature":"10","num_nodes":"15","size_leaf_vector":"1"}},{"base_weights":[-5.3894394E-3,1.5431122E0,-1.220771E0,-5.762905E-2,7.71808E-2,-1.3598171E0,7.601965E-2,-1.3661197E0,-3.996991E-2,-7.6970644E-2,-1.3526393E0,7.834032E-2,-7.687853E-2,-8.9784807E-1,-1.3653781E0,-6.1090756E-2,7.805529E-2,-6.8865426E-2,-5.9298187E-2],"categories":[],"categories_nodes":[],"categories_segments":[],"categories_sizes":[],"default_left":[0,0,0,0,0,0,0,0,0,0,0,0,0,0,0,0,0,0,0],"id":7,"left_children":[1,3,5,-1,-1,7,-1,9,11,-1,13,-1,-1,15,17,-1,-1,-1,-1],"loss_changes":[5.3828066E4,1.8861328E1,6.109666E3,0E0,0E0,1.2681055E2,0E0,3.3375E1,1.793022E2,0E0,8.041211E1,0E0,0E0,3.1009348E2,2.7705078E1,0E0,0E0,0E0,0E0],"parents":[2147483647,0,0,1,1,2,2,5,5,7,7,8,8,10,10,13,13,14,14],"right_children":[2,4,6,-1,-1,8,-1,10,12,-1,14,-1,-1,16,18,-1,-1,-1,-1],"split_conditions":[-3.4534708E-2,6.988849E0,9.322065E-1,-5.762905E-2,7.71808E-2,8.345457E6,7.601965E-2,5.996768E0,8.2638145E6,-7.6970644E-2,2.8191653E2,7.834032E-2,-7.687853E-2,2.8354913E2,1.5148784E5,-6.1090756E-2,7.805529E-2,-6.8865426E-2,-5.9298187E-2],"split_indices":[6,8,5,0,0,3,0,8,0,0,0,0,0,3,8,0,0,0,0],"split_type":[0,0,0,0,0,0,0,0,0,0,0,0,0,0,0,0,0,0,0],"sum_hessian":[2.8599217E4,1.2576014E4,1.6023202E4,1.9233094E0,1.2574091E4,1.525014E4,7.730629E2,1.5177627E4,7.2512215E1,1.0872795E3,1.4090348E4,3.4958748E1,3.7553467E1,3.8586716E2,1.370448E4,3.413919E2,4.4475246E1,1.2843741E4,8.60739E2],"tree_param":{"num_deleted":"0","num_feature":"10","num_nodes":"19","size_leaf_vector":"1"}},{"base_weights":[5.719594E-3,1.502079E0,-1.178009E0,1.5162953E0,-1.3222102E0,-7.6223396E-2,1.5887458E0,-5.4442503E-2,1.5167849E0,-8.766333E-2,6.74565E-2,8.3104804E-2,7.488818E-2,7.715115E-2,7.491361E-2],"categories":[],"categories_nodes":[],"categories_segments":[],"categories_sizes":[],"default_left":[0,0,0,0,0,0,0,0,0,0,0,0,0,0,0],"id":8,"left_children":[1,3,5,7,9,-1,11,-1,13,-1,-1,-1,-1,-1,-1],"loss_changes":[4.9993508E4,5.0253125E2,1.5107912E4,1.7470703E1,7.48742E1,0E0,9.217285E0,0E0,3.7128906E0,0E0,0E0,0E0,0E0,0E0,0E0],"parents":[2147483647,0,0,1,1,2,2,3,3,4,4,6,6,8,8],"right_children":[2,4,6,8,10,-1,12,-1,14,-1,-1,-1,-1,-1,-1],"split_conditions":[-3.4534708E-2,1E0,1E0,5.7701597E0,9.997E3,-7.6223396E-2,9.997E3,-5.4442503E-2,9.924E3,-8.766333E-2,6.74565E-2,8.3104804E-2,7.488818E-2,7.715115E-2,7.491361E-2],"split_indices":[6,9,9,8,4,0,4,0,4,0,0,0,0,0,0],"split_type":[0,0,0,0,0,0,0,0,0,0,0,0,0,0,0],"sum_hessian":[2.8222455E4,1.2465042E4,1.5757413E4,1.2403073E4,6.1969093E1,1.4004224E4,1.7531893E3,1.9126078E0,1.2401161E4,5.3654842E1,8.31425E0,9.610883E2,7.9210095E2,5.09609E3,7.305071E3],"tree_param":{"num_deleted":"0","num_feature":"10","num_nodes":"15","size_leaf_vector":"1"}},{"base_weights":[6.499119E-4,1.4627051E0,-1.149535E0,1.4770454E0,-9.702678E-1,-7.429855E-2,7.720129E-2,-5.4559197E-2,7.387937E-2,4.664691E-1,-8.4287666E-2,9.7119814E-1,-7.049934E-2,-6.325335E-2,6.961855E-2],"categories":[],"categories_nodes":[],"categories_segments":[],"categories_sizes":[],"default_left":[0,0,0,0,0,0,0,0,0,0,0,0,0,0,0],"id":9,"left_children":[1,3,5,7,9,-1,-1,-1,-1,11,-1,13,-1,-1,-1],"loss_changes":[4.620124E4,4.2348828E2,1.3937143E4,1.834961E1,7.4272316E1,0E0,0E0,0E0,0E0,2.4619194E1,0E0,2.0539293E1,0E0,0E0,0E0],"parents":[2147483647,0,0,1,1,2,2,3,3,4,4,9,9,11,11],"right_children":[2,4,6,8,10,-1,-1,-1,-1,12,-1,14,-1,-1,-1],"split_conditions":[-3.4534708E-2,1E0,1E0,5.7701597E0,-1.752123E-1,-7.429855E-2,7.720129E-2,-5.4559197E-2,7.387937E-2,2.3586904E3,-8.4287666E-2,2.1407961E3,-7.049934E-2,-6.325335E-2,6.961855E-2],"split_indices":[6,9,9,8,6,0,0,0,0,0,0,0,0,0,0],"split_type":[0,0,0,0,0,0,0,0,0,0,0,0,0,0,0],"sum_hessian":[2.747202E4,1.2095974E4,1.5376046E4,1.2025487E4,7.0486885E1,1.3669163E4,1.7068827E3,2.1123323E0,1.2023375E4,2.3548384E1,4.6938503E1,1.893711E1,4.611274E0,2.6837513E0,1.6253359E1],"tree_param":{"num_deleted":"0","num_feature":"10","num_nodes":"15","size_leaf_vector":"1"}},{"base_weights":[-4.3012216E-3,1.428502E0,-1.1063681E0,1.4424244E0,-1.2313552E0,-7.255919E-2,1.5055934E0,-5.9431713E-2,1.4431123E0,-8.166918E-2,6.419061E-2,7.813626E-2,7.136269E-2,1.4635777E0,7.145727E-2,7.384592E-2,7.110747E-2],"categories":[],"categories_nodes":[],"categories_segments":[],"categories_sizes":[],"default_left":[0,0,0,0,0,0,0,0,0,0,0,0,0,0,0,0,0],"id":10,"left_children":[1,3,5,7,9,-1,11,-1,13,-1,-1,-1,-1,15,-1,-1,-1],"loss_changes":[4.194138E4,4.294121E2,1.3523934E4,2.2507812E1,6.344406E1,0E0,5.6083984E0,0E0,1.1933594E0,0E0,0E0,0E0,0E0,4.501953E-1,0E0,0E0,0E0],"parents":[2147483647,0,0,1,1,2,2,3,3,4,4,6,6,8,8,13,13],"right_children":[2,4,6,8,10,-1,12,-1,14,-1,-1,-1,-1,16,-1,-1,-1],"split_conditions":[-3.4534708E-2,1E0,1E0,6.988849E0,9.322065E-1,-7.255919E-2,9.322065E-1,-5.9431713E-2,9.322065E-1,-8.166918E-2,6.419061E-2,7.813626E-2,7.136269E-2,-1.282133E-1,7.145727E-2,7.384592E-2,7.110747E-2],"split_indices":[6,9,9,8,5,0,5,0,5,0,0,0,0,6,0,0,0],"split_type":[0,0,0,0,0,0,0,0,0,0,0,0,0,0,0,0,0],"sum_hessian":[2.6559234E4,1.1546834E4,1.5012399E4,1.1487165E4,5.9669506E1,1.3262064E4,1.750335E3,2.5510216E0,1.1484613E4,5.1748524E1,7.920982E0,1.0012168E3,7.491181E2,4.616456E3,6.868157E3,3.465768E3,1.1506882E3],"tree_param":{"num_deleted":"0","num_feature":"10","num_nodes":"17","size_leaf_vector":"1"}},{"base_weights":[1.1773568E-2,1.3979388E0,-1.066652E0,-5.1818874E-2,6.992337E-2,-1.1996071E0,6.891987E-2,-1.2125174E0,-9.951982E-1,-1.1879367E0,-1.3868285E0,-4.6755454E-1,-1.161006E0,-1.2040398E0,-4.6737152E-1,-1.2907858E0,-7.001578E-2,6.27733E-1,-6.993939E-1,-9.181814E-1,-1.3023391E0,-6.9945976E-2,-5.943797E-2,-4.120676E-2,3.912239E-2,-7.035758E-2,6.6773626E-3,-4.052299E-3,6.4486034E-2,-7.03206E-2,-1.954767E-2,-5.8559667E-2,-1.7911124E-4,-7.10722E-2,-4.015934E-2],"categories":[],"categories_nodes":[],"categories_segments":[],"categories_sizes":[],"default_left":[0,0,0,0,0,0,0,0,0,0,0,0,0,0,0,0,0,0,0,0,0,0,0,0,0,0,0,0,0,0,0,0,0,0,0],"id":11,"left_children":[1,3,5,-1,-1,7,-1,9,11,13,15,17,19,21,23,25,-1,27,29,31,33,-1,-1,-1,-1,-1,-1,-1,-1,-1,-1,-1,-1,-1,-1],"loss_changes":[3.8927617E4,1.6109375E1,4.7628496E3,0E0,0E0,3.545117E1,0E0,5.4316406E1,7.2143005E1,1.3234473E2,2.758789E-1,5.130808E1,2.047644E1,3.1700195E1,1.1301669E2,3.513034E1,0E0,1.6771818E1,3.5607506E1,5.4541885E1,2.244696E1,0E0,0E0,0E0,0E0,0E0,0E0,0E0,0E0,0E0,0E0,0E0,0E0,0E0,0E0],"parents":[2147483647,0,0,1,1,2,2,5,5,7,7,8,8,9,9,10,10,11,11,12,12,13,13,14,14,15,15,17,17,18,18,19,19,20,20],"right_children":[2,4,6,-1,-1,8,-1,10,12,14,16,18,20,22,24,26,-1,28,30,32,34,-1,-1,-1,-1,-1,-1,-1,-1,-1,-1,-1,-1,-1,-1],"split_conditions":[-3.4534708E-2,5.7701597E0,9.997E3,-5.1818874E-2,6.992337E-2,1.5148784E5,6.891987E-2,2.301442E6,-1.0743242E-2,5.1309207E4,3.0101012E6,4.795979E4,-1.3312887E-3,5.2685165E0,2.1794968E6,1.0751416E5,-7.001578E-2,7.053487E6,6.034237E6,-2.553695E-3,8.359E3,-6.9945976E-2,-5.943797E-2,-4.120676E-2,3.912239E-2,-7.035758E-2,6.6773626E-3,-4.052299E-3,6.4486034E-2,-7.03206E-2,-1.954767E-2,-5.8559667E-2,-1.7911124E-4,-7.10722E-2,-4.015934E-2],"split_indices":[6,8,4,0,0,8,0,1,6,8,0,7,6,8,3,8,0,3,3,6,4,0,0,0,0,0,0,0,0,0,0,0,0,0,0],"split_type":[0,0,0,0,0,0,0,0,0,0,0,0,0,0,0,0,0,0,0,0,0,0,0,0,0,0,0,0,0,0,0,0,0,0,0],"sum_hessian":[2.6038701E4,1.1393567E4,1.4645134E4,2.0480263E0,1.139152E4,1.3890324E4,7.548089E2,1.3060509E4,8.298153E2,1.145323E4,1.6072787E3,1.9932642E2,6.304889E2,1.1202214E4,2.510169E2,2.0982199E2,1.3974567E3,3.4522564E1,1.6480385E2,2.3471738E2,3.957715E2,8.0790656E2,1.0394307E4,1.9554013E2,5.5476765E1,1.9398572E2,1.5836267E1,1.7095873E1,1.742669E1,4.897711E1,1.1582674E2,1.8363623E2,5.108114E1,3.1803586E2,7.773565E1],"tree_param":{"num_deleted":"0","num_feature":"10","num_nodes":"35","size_leaf_vector":"1"}},{"base_weights":[1.7265957E-2,1.3685415E0,-1.0553058E0,-5.8366835E-2,6.8462536E-2,-1.1843202E0,6.7629464E-2,-1.201987E0,-9.111253E-1,-1.177616E0,-6.875002E-2,-5.6807405E-1,-1.3286406E0,-1.1942973E0,-6.86848E-1,1.9379385E-1,-7.894662E-1,-6.9629885E-2,-1.0333518E0,-6.574732E-2,-5.7984944E-2,-4.278614E-2,8.627732E-3,-3.693658E-2,3.4568604E-2,-2.497703E-2,-6.1982717E-2,4.6103705E-2,-6.935449E-2],"categories":[],"categories_nodes":[],"categories_segments":[],"categories_sizes":[],"default_left":[0,0,0,0,0,0,0,0,0,0,0,0,0,0,0,0,0,0,0,0,0,0,0,0,0,0,0,0,0],"id":12,"left_children":[1,3,5,-1,-1,7,-1,9,11,13,-1,15,17,19,21,23,25,-1,27,-1,-1,-1,-1,-1,-1,-1,-1,-1,-1],"loss_changes":[3.7063875E4,2.1947266E1,4.430492E3,0E0,0E0,6.421875E1,0E0,5.1960938E1,1.1756348E2,9.041992E1,0E0,7.693634E1,5.5838013E0,4.346289E1,5.366162E1,4.844321E1,4.5444565E1,0E0,4.9752533E1,0E0,0E0,0E0,0E0,0E0,0E0,0E0,0E0,0E0,0E0],"parents":[2147483647,0,0,1,1,2,2,5,5,7,7,8,8,9,9,11,11,12,12,13,13,14,14,15,15,16,16,18,18],"right_children":[2,4,6,-1,-1,8,-1,10,12,14,-1,16,18,20,22,24,26,-1,28,-1,-1,-1,-1,-1,-1,-1,-1,-1,-1],"split_conditions":[-3.4534708E-2,6.988849E0,9.997E3,-5.8366835E-2,6.8462536E-2,1.5148784E5,6.7629464E-2,2.301442E6,-1.3312887E-3,3.9488977E4,-6.875002E-2,7.107964E4,8.359E3,1.8657412E1,2.1794968E6,6.49E3,6.6703945E6,-6.9629885E-2,8.396E3,-6.574732E-2,-5.7984944E-2,-4.278614E-2,8.627732E-3,-3.693658E-2,3.4568604E-2,-2.497703E-2,-6.1982717E-2,4.6103705E-2,-6.935449E-2],"split_indices":[6,8,4,0,0,8,0,1,6,8,0,7,4,8,3,4,0,0,4,0,0,0,0,0,0,0,0,0,0],"split_type":[0,0,0,0,0,0,0,0,0,0,0,0,0,0,0,0,0,0,0,0,0,0,0,0,0,0,0,0,0],"sum_hessian":[2.5570938E4,1.1315223E4,1.4255716E4,2.7031546E0,1.131252E4,1.3531225E4,7.244907E2,1.2706148E4,8.2507654E2,1.1144163E4,1.561985E3,4.542241E2,3.7085245E2,1.0776437E4,3.677275E2,1.0230178E2,3.5192233E2,3.017744E2,6.907801E1,2.3933923E3,8.383044E3,3.073389E2,6.038861E1,3.5425392E1,6.687639E1,2.153466E2,1.3657571E2,1.0335852E1,5.8742157E1],"tree_param":{"num_deleted":"0","num_feature":"10","num_nodes":"29","size_leaf_vector":"1"}},{"base_weights":[-9.470412E-4,1.3420744E0,-1.0375801E0,-4.9336407E-2,6.71299E-2,-1.1613955E0,6.633894E-2,-1.1674664E0,4.6580274E-2,-6.7402504E-2,-1.1560857E0,7.2171696E-2,-6.694051E-2,-1.3751453E-3,-1.1632168E0,2.641024E-2,-6.5767944E-2,-5.322351E-2,-5.9227545E-2],"categories":[],"categories_nodes":[],"categories_segments":[],"categories_sizes":[],"default_left":[0,0,0,0,0,0,0,0,0,0,0,0,0,0,0,0,0,0,0],"id":13,"left_children":[1,3,5,-1,-1,7,-1,9,11,-1,13,-1,-1,15,17,-1,-1,-1,-1],"loss_changes":[3.412148E4,1.434375E1,4.0508135E3,0E0,0E0,9.6447266E1,0E0,2.5320312E1,1.3098996E2,0E0,1.0136719E2,0E0,0E0,5.3968903E1,2.4513672E1,0E0,0E0,0E0,0E0],"parents":[2147483647,0,0,1,1,2,2,5,5,7,7,8,8,10,10,13,13,14,14],"right_children":[2,4,6,-1,-1,8,-1,10,12,-1,14,-1,-1,16,18,-1,-1,-1,-1],"split_conditions":[-3.4534708E-2,5.7701597E0,9.997E3,-4.9336407E-2,6.71299E-2,8.345457E6,6.633894E-2,5.2685165E0,8.2638145E6,-6.7402504E-2,1.8611197E2,7.2171696E-2,-6.694051E-2,8.266118E0,2.1699625E1,2.641024E-2,-6.5767944E-2,-5.322351E-2,-5.9227545E-2],"split_indices":[6,8,4,0,0,3,0,8,0,0,1,0,0,8,7,0,0,0,0],"split_type":[0,0,0,0,0,0,0,0,0,0,0,0,0,0,0,0,0,0,0],"sum_hessian":[2.4506676E4,1.0675552E4,1.3831124E4,1.9766054E0,1.0673575E4,1.3143349E4,6.877747E2,1.3077659E4,6.56899E1,7.6835E2,1.2309309E4,3.2688766E1,3.3001137E1,7.555874E1,1.223375E4,5.428005E1,2.1278685E1,2.1825413E3,1.0051209E4],"tree_param":{"num_deleted":"0","num_feature":"10","num_nodes":"19","size_leaf_vector":"1"}},{"base_weights":[8.147626E-3,1.3175435E0,-9.8847586E-1,1.3327725E0,-1.072851E0,-6.7545824E-2,1.4998157E0,-4.980883E-2,6.666765E-2,-8.604293E-2,6.257787E-2,8.049106E-2,6.621299E-2],"categories":[],"categories_nodes":[],"categories_segments":[],"categories_sizes":[],"default_left":[0,0,0,0,0,0,0,0,0,0,0,0,0],"id":14,"left_children":[1,3,5,7,9,-1,11,-1,-1,-1,-1,-1,-1],"loss_changes":[3.1449602E4,3.805879E2,1.2343283E4,1.5322266E1,1.0230329E2,0E0,3.1476807E1,0E0,0E0,0E0,0E0,0E0,0E0],"parents":[2147483647,0,0,1,1,2,2,3,3,4,4,6,6],"right_children":[2,4,6,8,10,-1,12,-1,-1,-1,-1,-1,-1],"split_conditions":[-3.4534708E-2,1E0,1E0,5.7701597E0,9.997E3,-6.7545824E-2,9.997E3,-4.980883E-2,6.666765E-2,-8.604293E-2,6.257787E-2,8.049106E-2,6.621299E-2],"split_indices":[6,9,9,8,4,0,4,0,0,0,0,0,0],"split_type":[0,0,0,0,0,0,0,0,0,0,0,0,0],"sum_hessian":[2.409778E4,1.0414523E4,1.3683257E4,1.0349033E4,6.5490005E1,1.1943974E4,1.7392834E3,2.1517825E0,1.0346881E4,5.141577E1,1.4074232E1,1.0642451E3,6.750383E2],"tree_param":{"num_deleted":"0","num_feature":"10","num_nodes":"13","size_leaf_vector":"1"}},{"base_weights":[-3.0551318E-3,1.2952337E0,-9.7526056E-1,1.3110366E0,-1.3194567E0,-6.640063E-2,1.4521586E0,1.3156596E0,1.268113E0,-8.291218E-2,5.7551302E-2,7.802619E-2,6.517451E-2,6.681082E-2,6.522983E-2,-4.890025E-2,6.359737E-2],"categories":[],"categories_nodes":[],"categories_segments":[],"categories_sizes":[],"default_left":[0,0,0,0,0,0,0,0,0,0,0,0,0,0,0,0,0],"id":15,"left_children":[1,3,5,7,9,-1,11,13,15,-1,-1,-1,-1,-1,-1,-1,-1],"loss_changes":[2.916624E4,4.105625E2,1.1315928E4,2.8125E-1,5.2076096E1,0E0,2.4982422E1,2.7148438E-1,9.71875E0,0E0,0E0,0E0,0E0,0E0,0E0,0E0,0E0],"parents":[2147483647,0,0,1,1,2,2,3,3,4,4,6,6,7,7,8,8],"right_children":[2,4,6,8,10,-1,12,14,16,-1,-1,-1,-1,-1,-1,-1,-1],"split_conditions":[-3.4534708E-2,1E0,1E0,-1.282133E-1,9.997E3,-6.640063E-2,9.997E3,9.887E3,2.4249834E2,-8.291218E-2,5.7551302E-2,7.802619E-2,6.517451E-2,6.681082E-2,6.522983E-2,-4.890025E-2,6.359737E-2],"split_indices":[6,9,9,6,4,0,4,4,3,0,0,0,0,0,0,0,0],"split_type":[0,0,0,0,0,0,0,0,0,0,0,0,0,0,0,0,0],"sum_hessian":[2.3105396E4,9.893383E3,1.3212015E4,9.834443E3,5.8939537E1,1.1536051E4,1.6759634E3,8.851471E3,9.82973E2,5.212079E1,6.818747E0,9.6388525E2,7.120781E2,3.0550051E3,5.7964653E3,1.242266E0,9.817307E2],"tree_param":{"num_deleted":"0","num_feature":"10","num_nodes":"17","size_leaf_vector":"1"}},{"base_weights":[8.554029E-3,1.2765254E0,-9.5745325E-1,6.4554036E-2,-9.884733E-1,-6.5347046E-2,1.4291923E0,-8.009908E-2,6.0522802E-2,7.611389E-2,6.420287E-2],"categories":[],"categories_nodes":[],"categories_segments":[],"categories_sizes":[],"default_left":[0,0,0,0,0,0,0,0,0,0,0],"id":16,"left_children":[1,3,5,-1,7,-1,9,-1,-1,-1,-1],"loss_changes":[2.7531418E4,3.2170215E2,1.0643034E4,0E0,8.642596E1,0E0,2.0066406E1,0E0,0E0,0E0,0E0],"parents":[2147483647,0,0,1,1,2,2,4,4,6,6],"right_children":[2,4,6,-1,8,-1,10,-1,-1,-1,-1],"split_conditions":[-3.4534708E-2,1E0,1E0,6.4554036E-2,9.997E3,-6.5347046E-2,9.887E3,-8.009908E-2,6.0522802E-2,7.611389E-2,6.420287E-2],"split_indices":[6,9,9,0,4,0,4,0,0,0,0],"split_type":[0,0,0,0,0,0,0,0,0,0,0],"sum_hessian":[2.2475023E4,9.718412E3,1.2756611E4,9.656786E3,6.162637E1,1.1127597E4,1.6290137E3,4.839538E1,1.3230994E1,9.866906E2,6.423231E2],"tree_param":{"num_deleted":"0","num_feature":"10","num_nodes":"11","size_leaf_vector":"1"}},{"base_weights":[7.361923E-3,1.257281E0,-9.460948E-1,1.2724569E0,-9.8353666E-1,-6.437628E-2,1.3960646E0,-4.8708215E-2,6.365163E-2,-7.775178E-2,5.9557658E-2,7.392761E-2,6.331015E-2],"categories":[],"categories_nodes":[],"categories_segments":[],"categories_sizes":[],"default_left":[0,0,0,0,0,0,0,0,0,0,0,0,0],"id":17,"left_children":[1,3,5,7,9,-1,11,-1,-1,-1,-1,-1,-1],"loss_changes":[2.5804318E4,3.1987793E2,9.824297E3,1.3276367E1,8.088728E1,0E0,1.4873047E1,0E0,0E0,0E0,0E0,0E0,0E0],"parents":[2147483647,0,0,1,1,2,2,3,3,4,4,6,6],"right_children":[2,4,6,8,10,-1,12,-1,-1,-1,-1,-1,-1],"split_conditions":[-3.4534708E-2,1E0,1E0,5.7701597E0,9.997E3,-6.437628E-2,9.887E3,-4.8708215E-2,6.365163E-2,-7.775178E-2,5.9557658E-2,7.392761E-2,6.331015E-2],"split_indices":[6,9,9,8,4,0,4,0,0,0,0,0,0],"split_type":[0,0,0,0,0,0,0,0,0,0,0,0,0],"sum_hessian":[2.1650574E4,9.368616E3,1.2281958E4,9.306023E3,6.2592636E1,1.07197295E4,1.562229E3,1.9506769E0,9.304073E3,4.9792366E1,1.2800272E1,9.490266E2,6.1320245E2],"tree_param":{"num_deleted":"0","num_feature":"10","num_nodes":"13","size_leaf_vector":"1"}},{"base_weights":[1.4530411E-2,-4.7570544E-1,6.243051E-2,-6.097724E-1,1.3140814E0,-6.221059E-1,6.735547E-1,-4.1678455E-2,1.3172181E0,-5.9825987E-1,-1.1859733E0,6.1939754E-2,1.0150655E-1,1.336849E0,1.1756556E0,-6.214804E-1,6.213772E-2,-9.5524627E-1,-6.326025E-2,4.1290355E-1,-5.380611E-1,6.7451614E-1,6.719648E-2,-5.0366428E-2,1.2129059E0,-3.0090898E-2,-6.292122E-2,-6.319644E-2,5.961137E-2,-4.6444494E-2,2.5859067E-2,-5.8299102E-2,7.1821697E-3,6.2028643E-2,-5.2788913E-2,6.19768E-2,-4.2183004E-2],"categories":[],"categories_nodes":[],"categories_segments":[],"categories_sizes":[],"default_left":[0,0,0,0,0,0,0,0,0,0,0,0,0,0,0,0,0,0,0,0,0,0,0,0,0,0,0,0,0,0,0,0,0,0,0,0,0],"id":18,"left_children":[1,3,-1,5,7,9,11,-1,13,15,17,-1,19,21,23,25,-1,27,-1,29,31,33,-1,-1,35,-1,-1,-1,-1,-1,-1,-1,-1,-1,-1,-1,-1],"loss_changes":[1.2782314E4,3.6291697E3,0E0,2.2308984E2,8.198242E0,1.866582E2,4.3330753E1,0E0,1.3544922E0,5.723926E2,9.108765E0,0E0,1.3742187E1,3.395874E0,1.2323395E1,1.6462744E2,0E0,9.984471E1,0E0,6.9477353E0,9.868757E0,1.2780308E1,0E0,0E0,8.422028E0,0E0,0E0,0E0,0E0,0E0,0E0,0E0,0E0,0E0,0E0,0E0,0E0],"parents":[2147483647,0,0,1,1,3,3,4,4,5,5,6,6,8,8,9,9,10,10,12,12,13,13,14,14,15,15,17,17,19,19,20,20,21,21,24,24],"right_children":[2,4,-1,6,8,10,12,-1,14,16,18,-1,20,22,24,26,-1,28,-1,30,32,34,-1,-1,36,-1,-1,-1,-1,-1,-1,-1,-1,-1,-1,-1,-1],"split_conditions":[9.997E3,1E0,6.243051E-2,8.345457E6,3.0246294E0,6.4766885E6,7.898026E6,-4.1678455E-2,3.534289E4,6.466133E6,6.861694E6,6.1939754E-2,1.8238998E5,5.27E2,1.9589962E6,5.5056125E6,6.213772E-2,6.939958E6,-6.326025E-2,2.149E3,2.413528E5,3.653876E2,6.719648E-2,-5.0366428E-2,8.555E3,-3.0090898E-2,-6.292122E-2,-6.319644E-2,5.961137E-2,-4.6444494E-2,2.5859067E-2,-5.8299102E-2,7.1821697E-3,6.2028643E-2,-5.2788913E-2,6.19768E-2,-4.2183004E-2],"split_indices":[4,9,0,3,7,1,0,0,7,3,1,0,7,4,3,0,0,3,0,4,7,0,0,0,4,0,0,0,0,0,0,0,0,0,0,0,0],"split_type":[0,0,0,0,0,0,0,0,0,0,0,0,0,0,0,0,0,0,0,0,0,0,0,0,0,0,0,0,0,0,0,0,0,0,0,0,0],"sum_hessian":[2.1126156E4,1.51202705E4,6.0058843E3,1.4067203E4,1.0530679E3,1.3933807E4,1.3339682E2,1.1496248E0,1.0519183E3,1.337043E4,5.6337665E2,6.6511406E1,6.688541E1,9.163953E2,1.3552293E2,1.3204544E4,1.6588527E2,1.4734766E2,4.1602902E2,4.5221878E1,2.166353E1,1.071127E1,9.056841E2,1.8368284E0,1.3368611E2,1.2811013E4,3.935314E2,1.2918916E2,1.8158497E1,2.6907563E0,4.253112E1,1.0906819E1,1.075671E1,8.284175E0,2.4270957E0,1.3236937E2,1.3167458E0],"tree_param":{"num_deleted":"0","num_feature":"10","num_nodes":"37","size_leaf_vector":"1"}},{"base_weights":[-1.2384023E-3,1.2330058E0,-9.176298E-1,1.2491463E0,-1.0089417E0,-6.3046284E-2,1.352088E0,-3.6374833E-2,1.2494696E0,-7.7073134E-2,5.7738353E-2,7.094847E-2,6.1718907E-2,1.2687376E0,6.1803944E-2,6.4200155E-2,6.1071742E-2],"categories":[],"categories_nodes":[],"categories_segments":[],"categories_sizes":[],"default_left":[0,0,0,0,0,0,0,0,0,0,0,0,0,0,0,0,0],"id":19,"left_children":[1,3,5,7,9,-1,11,-1,13,-1,-1,-1,-1,15,-1,-1,-1],"loss_changes":[2.3028867E4,3.1520312E2,9.106396E3,6.4121094E0,7.387028E1,0E0,1.0337891E1,0E0,6.5527344E-1,0E0,0E0,0E0,0E0,9.5410156E-1,0E0,0E0,0E0],"parents":[2147483647,0,0,1,1,2,2,3,3,4,4,6,6,8,8,13,13],"right_children":[2,4,6,8,10,-1,12,-1,14,-1,-1,-1,-1,16,-1,-1,-1],"split_conditions":[-3.4534708E-2,1E0,1E0,5.5460825E0,9.997E3,-6.3046284E-2,9.997E3,-3.6374833E-2,9.53E3,-7.7073134E-2,5.7738353E-2,7.094847E-2,6.1718907E-2,-1.282133E-1,6.1803944E-2,6.4200155E-2,6.1071742E-2],"split_indices":[6,9,9,8,4,0,4,0,4,0,0,0,0,6,0,0,0],"split_type":[0,0,0,0,0,0,0,0,0,0,0,0,0,0,0,0,0],"sum_hessian":[2.0358598E4,8.674704E3,1.1683894E4,8.613138E3,6.1566372E1,1.0149258E4,1.5346355E3,1.0405166E0,8.612098E3,4.963744E1,1.192893E1,9.71555E2,5.6308057E2,3.4927004E3,5.1193965E3,2.6207817E3,8.719188E2],"tree_param":{"num_deleted":"0","num_feature":"10","num_nodes":"17","size_leaf_vector":"1"}},{"base_weights":[5.0280127E-3,1.2167121E0,-9.266282E-1,1.2328752E0,-9.9704367E-1,-6.224997E-2,1.3208447E0,-4.8439045E-2,1.2335291E0,-7.49393E-2,5.6930136E-2,6.941476E-2,6.101234E-2,1.250111E0,6.110269E-2,6.330369E-2,6.0044058E-2],"categories":[],"categories_nodes":[],"categories_segments":[],"categories_sizes":[],"default_left":[0,0,0,0,0,0,0,0,0,0,0,0,0,0,0,0,0],"id":20,"left_children":[1,3,5,7,9,-1,11,-1,13,-1,-1,-1,-1,15,-1,-1,-1],"loss_changes":[2.2307691E4,3.0857715E2,7.995131E3,1.347168E1,6.901361E1,0E0,7.7148438E0,0E0,9.375E-2,0E0,0E0,0E0,0E0,1.1850586E0,0E0,0E0,0E0],"parents":[2147483647,0,0,1,1,2,2,3,3,4,4,6,6,8,8,13,13],"right_children":[2,4,6,8,10,-1,12,-1,14,-1,-1,-1,-1,16,-1,-1,-1],"split_conditions":[-3.4534708E-2,1E0,1E0,5.7701597E0,9.997E3,-6.224997E-2,9.997E3,-4.8439045E-2,9.53E3,-7.49393E-2,5.6930136E-2,6.941476E-2,6.101234E-2,-1.282133E-1,6.110269E-2,6.330369E-2,6.0044058E-2],"split_indices":[6,9,9,8,4,0,4,0,4,0,0,0,0,6,0,0,0],"split_type":[0,0,0,0,0,0,0,0,0,0,0,0,0,0,0,0,0],"sum_hessian":[1.9759031E4,8.588622E3,1.1170409E4,8.526809E3,6.1813156E1,9.7847705E3,1.3856394E3,2.0919168E0,8.524717E3,5.0295166E1,1.1517991E1,8.2181506E2,5.6382434E2,3.4424148E3,5.0823022E3,2.5808567E3,8.615581E2],"tree_param":{"num_deleted":"0","num_feature":"10","num_nodes":"17","size_leaf_vector":"1"}},{"base_weights":[4.818345E-4,1.2024089E0,-9.213786E-1,1.217916E0,-7.303316E-2,-6.151236E-2,1.311634E0,-4.3376025E-2,6.092177E-2,6.824217E-2,6.0327202E-2],"categories":[],"categories_nodes":[],"categories_segments":[],"categories_sizes":[],"default_left":[0,0,0,0,0,0,0,0,0,0,0],"id":21,"left_children":[1,3,5,7,-1,-1,9,-1,-1,-1,-1],"loss_changes":[2.102509E4,3.4192188E2,7.408343E3,9.9296875E0,0E0,0E0,5.652588E0,0E0,0E0,0E0,0E0],"parents":[2147483647,0,0,1,1,2,2,3,3,6,6],"right_children":[2,4,6,8,-1,-1,10,-1,-1,-1,-1],"split_conditions":[-3.4534708E-2,1E0,1E0,5.7701597E0,-7.303316E-2,-6.151236E-2,9.997E3,-4.3376025E-2,6.092177E-2,6.824217E-2,6.0327202E-2],"split_indices":[6,9,9,8,0,0,4,0,0,0,0],"split_type":[0,0,0,0,0,0,0,0,0,0,0],"sum_hessian":[1.8973559E4,8.235613E3,1.0737945E4,8.188474E3,4.713886E1,9.433553E3,1.3043923E3,1.6234542E0,8.1868506E3,8.579863E2,4.46406E2],"tree_param":{"num_deleted":"0","num_feature":"10","num_nodes":"11","size_leaf_vector":"1"}},{"base_weights":[4.00632E-3,1.1887954E0,-9.0849453E-1,-4.7763135E-2,1.1895097E0,-1.0133198E0,5.8778908E-2,5.9774663E-2,1.1419088E0,-1.017006E0,-1.965277E-1,5.7213742E-2,3.3485647E-2,-1.1856756E0,-9.9938035E-1,5.9762925E-2,-5.8897465E-2,-9.26151E-1,-6.0191553E-2,-7.6670337E-1,-1.0225364E0,-5.9106458E-2,1.2801394E-2,-4.5824885E-2,-4.762029E-3,-5.421436E-2,-4.9007174E-2],"categories":[],"categories_nodes":[],"categories_segments":[],"categories_sizes":[],"default_left":[0,0,0,0,0,0,0,0,0,0,0,0,0,0,0,0,0,0,0,0,0,0,0,0,0,0,0],"id":22,"left_children":[1,3,5,-1,7,9,-1,-1,11,13,15,-1,-1,17,19,-1,-1,21,-1,23,25,-1,-1,-1,-1,-1,-1],"loss_changes":[1.9747588E4,1.3306641E1,2.2554395E3,0E0,8.9746094E-1,2.938086E1,0E0,0E0,2.4987793E-1,2.7893555E1,6.3393684E1,0E0,0E0,3.2200928E0,4.6960938E1,0E0,0E0,1.9817272E1,0E0,8.0989746E1,2.0027344E1,0E0,0E0,0E0,0E0,0E0,0E0],"parents":[2147483647,0,0,1,1,2,2,4,4,5,5,8,8,9,9,10,10,13,13,14,14,17,17,19,19,20,20],"right_children":[2,4,6,-1,8,10,-1,-1,12,14,16,-1,-1,18,20,-1,-1,22,-1,24,26,-1,-1,-1,-1,-1,-1],"split_conditions":[-3.4534708E-2,5.7701597E0,9.997E3,-4.7763135E-2,-1.282133E-1,8.345457E6,5.8778908E-2,5.9774663E-2,2.0731852E5,7.940519E0,7.898026E6,5.7213742E-2,3.3485647E-2,7.28E2,1.3808251E1,5.9762925E-2,-5.8897465E-2,6.91E2,-6.0191553E-2,3.1707304E1,4.22E3,-5.9106458E-2,1.2801394E-2,-4.5824885E-2,-4.762029E-3,-5.421436E-2,-4.9007174E-2],"split_indices":[6,8,4,0,6,3,0,0,7,8,0,0,0,4,7,0,0,4,0,8,4,0,0,0,0,0,0],"split_type":[0,0,0,0,0,0,0,0,0,0,0,0,0,0,0,0,0,0,0,0,0,0,0,0,0,0,0],"sum_hessian":[1.8263844E4,7.946205E3,1.0317639E4,2.2014098E0,7.9440034E3,9.8240205E3,4.9361816E2,7.03552E3,9.0848346E2,9.779641E3,4.43799E1,9.025379E2,5.945533E0,9.1899615E2,8.860645E3,1.8262857E1,2.6117043E1,6.348724E1,8.555089E2,8.0508466E2,8.0555596E3,5.2187153E1,1.1300088E1,6.579417E2,1.471429E2,3.2691086E3,4.786451E3],"tree_param":{"num_deleted":"0","num_feature":"10","num_nodes":"27","size_leaf_vector":"1"}},{"base_weights":[1.4733538E-3,-4.424088E-1,5.9119582E-2,-5.7492757E-1,1.2136077E0,-6.2553215E-1,4.4259092E-1,1.2306017E0,5.61563E-1,-5.90503E-2,-5.718426E-1,-3.3575118E-1,5.845882E-1,-3.764912E-2,1.2337228E0,-5.758482E-2,9.2705715E-1,6.929538E-2,-6.396027E-1,6.746238E-1,-5.923138E-2,1.15052E0,3.2615077E-1,7.913613E-1,6.2037088E-2,5.236703E-2,-3.714843E-2,-2.1863062E-2,2.5906352E-2,-5.7159312E-2,-2.9016895E-2,-5.394822E-2,5.8245648E-2,2.3618998E-2,5.907606E-2,-3.8993996E-2,3.5391152E-2,5.9413094E-2,-5.062536E-2],"categories":[],"categories_nodes":[],"categories_segments":[],"categories_sizes":[],"default_left":[0,0,0,0,0,0,0,0,0,0,0,0,0,0,0,0,0,0,0,0,0,0,0,0,0,0,0,0,0,0,0,0,0,0,0,0,0,0,0],"id":23,"left_children":[1,3,-1,5,7,9,11,13,15,-1,17,19,21,-1,23,-1,25,27,29,31,-1,33,35,37,-1,-1,-1,-1,-1,-1,-1,-1,-1,-1,-1,-1,-1,-1,-1],"loss_changes":[9.241033E3,2.8125654E3,0E0,6.111863E2,9.832031E0,3.3640625E2,6.2385612E1,6.654175E0,1.732463E1,0E0,4.478806E2,7.580421E1,6.927782E1,0E0,1.8861084E0,0E0,5.1876125E0,2.2445607E2,2.7758594E2,3.6132793E1,0E0,2.5722656E0,1.3915445E2,1.350869E1,0E0,0E0,0E0,0E0,0E0,0E0,0E0,0E0,0E0,0E0,0E0,0E0,0E0,0E0,0E0],"parents":[2147483647,0,0,1,1,3,3,4,4,5,5,6,6,7,7,8,8,10,10,11,11,12,12,14,14,16,16,17,17,18,18,19,19,21,21,22,22,23,23],"right_children":[2,4,-1,6,8,10,12,14,16,-1,18,20,22,-1,24,-1,26,28,30,32,-1,34,36,38,-1,-1,-1,-1,-1,-1,-1,-1,-1,-1,-1,-1,-1,-1,-1],"split_conditions":[9.997E3,1E0,5.9119582E-2,2.377931E5,2.7462328E5,9.03173E0,5.476025E6,3.0246294E0,6.3238095E6,-5.90503E-2,7.1609735E2,4.5753625E6,5.5056125E6,-3.764912E-2,5.27E2,-5.758482E-2,1.7047038E5,1.7308407E1,3.9450882E1,4.588205E6,-5.923138E-2,5.5269945E6,7.053487E6,1.76E2,6.2037088E-2,5.236703E-2,-3.714843E-2,-2.1863062E-2,2.5906352E-2,-5.7159312E-2,-2.9016895E-2,-5.394822E-2,5.8245648E-2,2.3618998E-2,5.907606E-2,-3.8993996E-2,3.5391152E-2,5.9413094E-2,-5.062536E-2],"split_indices":[4,9,0,8,8,8,3,7,3,0,0,0,0,0,4,0,7,8,8,3,0,3,3,4,0,0,0,0,0,0,0,0,0,0,0,0,0,0,0],"split_type":[0,0,0,0,0,0,0,0,0,0,0,0,0,0,0,0,0,0,0,0,0,0,0,0,0,0,0,0,0,0,0,0,0,0,0,0,0,0,0],"sum_hessian":[1.7627217E4,1.281206E4,4.8151562E3,1.1863375E4,9.4868536E2,1.1301689E4,5.616851E2,9.237236E2,2.496183E1,9.942407E2,1.0307449E4,8.645073E1,4.7523438E2,1.0737779E0,9.226498E2,4.010673E0,2.0951157E1,9.852371E2,9.322212E3,3.9564438E1,4.688629E1,1.479025E2,3.2733188E2,1.618759E1,9.0646216E2,1.9891344E1,1.0598128E0,4.6286646E2,5.2237067E2,9.796525E2,8.34256E3,8.382517E0,3.118192E1,7.17561E0,1.4072688E2,8.370978E1,2.436221E2,1.354794E1,2.6396484E0],"tree_param":{"num_deleted":"0","num_feature":"10","num_nodes":"39","size_leaf_vector":"1"}},{"base_weights":[4.4868877E-3,1.1705252E0,-8.813401E-1,1.1871786E0,-9.756752E-1,-5.9948917E-2,1.2733197E0,-3.8682036E-2,1.1876361E0,-7.374415E-2,5.5565145E-2,6.67183E-2,5.8633506E-2,1.2057562E0,5.870513E-2,6.123091E-2,5.7607103E-2],"categories":[],"categories_nodes":[],"categories_segments":[],"categories_sizes":[],"default_left":[0,0,0,0,0,0,0,0,0,0,0,0,0,0,0,0,0],"id":24,"left_children":[1,3,5,7,9,-1,11,-1,13,-1,-1,-1,-1,15,-1,-1,-1],"loss_changes":[1.789663E4,2.6850977E2,6.7403667E3,7.5791016E0,6.2215412E1,0E0,6.2111816E0,0E0,4.0429688E-1,0E0,0E0,0E0,0E0,1.7607422E0,0E0,0E0,0E0],"parents":[2147483647,0,0,1,1,2,2,3,3,4,4,6,6,8,8,13,13],"right_children":[2,4,6,8,10,-1,12,-1,14,-1,-1,-1,-1,16,-1,-1,-1],"split_conditions":[-3.4534708E-2,1E0,1E0,5.7701597E0,9.997E3,-5.9948917E-2,9.997E3,-3.8682036E-2,9.924E3,-7.374415E-2,5.5565145E-2,6.67183E-2,5.8633506E-2,-1.282133E-1,5.870513E-2,6.123091E-2,5.7607103E-2],"split_indices":[6,9,9,8,4,0,4,0,4,0,0,0,0,6,0,0,0],"split_type":[0,0,0,0,0,0,0,0,0,0,0,0,0,0,0,0,0],"sum_hessian":[1.7324451E4,7.4791367E3,9.845313E3,7.4219927E3,5.7143887E1,8.580785E3,1.264529E3,1.3374811E0,7.4206553E3,4.6350163E1,1.0793722E1,7.794922E2,4.8503683E2,3.135077E3,4.2855786E3,2.303007E3,8.3206976E2],"tree_param":{"num_deleted":"0","num_feature":"10","num_nodes":"17","size_leaf_vector":"1"}},{"base_weights":[-1.317246E-3,-4.3167162E-1,5.808862E-2,-4.7497874E-1,3.945168E-1,-4.170136E-1,-9.943469E-1,-3.394231E-1,5.3210115E-1,-1.0407943E0,-3.5289654E-1,-5.885045E-2,-5.332884E-1,6.1203825E-1,-5.916491E-2,1.1548353E0,3.025492E-1,-5.8353294E-2,-9.02749E-1,1.7340885E-1,-4.1800413E-1,-1.251906E-1,-1.0820942E0,-3.491436E-1,5.699226E-2,3.5578668E-2,5.8443855E-2,-9.688181E-1,5.602914E-1,3.0465428E-2,-5.1603317E-2,-1.4353612E-2,2.8227706E-2,-3.0766675E-2,-7.5627253E-3,-3.0320091E-2,5.006749E-2,4.1815262E-2,-5.8833666E-2,2.4331903E-2,-5.4192465E-2,2.5226831E-2,-5.844785E-2,5.8996625E-2,8.922359E-3],"categories":[],"categories_nodes":[],"categories_segments":[],"categories_sizes":[],"default_left":[0,0,0,0,0,0,0,0,0,0,0,0,0,0,0,0,0,0,0,0,0,0,0,0,0,0,0,0,0,0,0,0,0,0,0,0,0,0,0,0,0,0,0,0,0],"id":25,"left_children":[1,3,-1,5,7,9,11,13,15,17,19,-1,21,23,-1,25,27,-1,29,31,33,35,37,39,-1,-1,-1,41,43,-1,-1,-1,-1,-1,-1,-1,-1,-1,-1,-1,-1,-1,-1,-1,-1],"loss_changes":[8.30048E3,4.3327783E2,0E0,3.4585254E2,6.111396E1,4.1353284E2,9.656702E1,7.770088E1,7.234866E1,1.5751221E1,3.2168848E2,0E0,7.361926E1,2.3593737E1,0E0,1.8615723E-2,1.2274921E2,0E0,9.1548584E1,1.863947E2,4.3957593E2,1.0360608E2,2.6442505E1,1.0949684E1,0E0,0E0,0E0,1.923412E1,7.330558E1,0E0,0E0,0E0,0E0,0E0,0E0,0E0,0E0,0E0,0E0,0E0,0E0,0E0,0E0,0E0,0E0],"parents":[2147483647,0,0,1,1,3,3,4,4,5,5,6,6,7,7,8,8,9,9,10,10,12,12,13,13,15,15,16,16,18,18,19,19,20,20,21,21,22,22,23,23,27,27,28,28],"right_children":[2,4,-1,6,8,10,12,14,16,18,20,-1,22,24,-1,26,28,-1,30,32,34,36,38,40,-1,-1,-1,42,44,-1,-1,-1,-1,-1,-1,-1,-1,-1,-1,-1,-1,-1,-1,-1,-1],"split_conditions":[9.997E3,2.2068875E5,5.808862E-2,3.9099828E6,5.476025E6,9.03173E0,1.5148784E5,4.5753625E6,5.5165375E6,5.2685165E0,7.23411E2,-5.885045E-2,6.4739785E6,4.588205E6,-5.916491E-2,5.5269945E6,6.5866345E6,-5.8353294E-2,1.719682E2,1.7308407E1,2.1186572E3,6.466133E6,1.76E2,2.074E3,5.699226E-2,3.5578668E-2,5.8443855E-2,5.5056125E6,6.4076225E6,3.0465428E-2,-5.1603317E-2,-1.4353612E-2,2.8227706E-2,-3.0766675E-2,-7.5627253E-3,-3.0320091E-2,5.006749E-2,4.1815262E-2,-5.8833666E-2,2.4331903E-2,-5.4192465E-2,2.5226831E-2,-5.844785E-2,5.8996625E-2,8.922359E-3],"split_indices":[4,8,0,2,3,8,8,0,1,8,1,0,2,3,0,3,3,0,2,8,8,3,4,4,0,0,0,0,0,0,0,0,0,0,0,0,0,0,0,0,0,0,0,0,0],"split_type":[0,0,0,0,0,0,0,0,0,0,0,0,0,0,0,0,0,0,0,0,0,0,0,0,0,0,0,0,0,0,0,0,0,0,0,0,0,0,0,0,0,0,0,0,0],"sum_hessian":[1.6581025E4,1.21033125E4,4.477714E3,1.1500885E4,6.0242804E2,1.03478E4,1.153085E3,9.4871544E1,5.0755652E2,9.6306995E2,9.3847295E3,8.2477344E2,3.2831146E2,4.4722298E1,5.0149242E1,1.3561795E2,3.7193857E2,4.9909146E2,4.639785E2,1.0329651E3,8.351765E3,1.8899838E2,1.3931308E2,1.5972855E1,2.8749443E1,5.750959E0,1.2986699E2,6.2227837E1,3.0971072E2,3.626259E1,4.2771588E2,4.7455493E2,5.5841016E2,4.7997896E3,3.5519749E3,1.3275337E2,5.6245007E1,6.1770973E0,1.3313599E2,7.63038E0,8.342474E0,7.2601466E0,5.496769E1,1.17288956E2,1.9242178E2],"tree_param":{"num_deleted":"0","num_feature":"10","num_nodes":"45","size_leaf_vector":"1"}},{"base_weights":[1.3512774E-2,-3.849861E-1,5.7605784E-2,-5.024372E-1,1.1676496E0,-5.4882056E-1,3.6839402E-1,1.1849921E0,3.5233653E-1,-4.871976E-1,-1.1223687E0,-2.0474455E-1,4.8342413E-1,1.2234917E0,1.1019315E0,9.355601E-1,-5.6554735E-2,-5.314989E-1,4.3051973E-1,-5.8379274E-2,-8.7910306E-1,6.86011E-1,-5.8222145E-2,5.7398338E-2,2.3056835E-1,1.1821302E0,6.564125E-2,-6.644084E-2,1.1868523E0,5.951467E-1,5.7283413E-2,-5.6582917E-2,-2.3506861E-2,3.021617E-2,-1.0032717E-2,-1.3505491E-2,-5.844086E-2,1.3984174E-2,5.604262E-2,-3.916299E-2,2.883996E-2,5.9631255E-2,-4.506431E-2,5.9826102E-2,3.9400786E-2,-3.7413448E-2,4.6607025E-2],"categories":[],"categories_nodes":[],"categories_segments":[],"categories_sizes":[],"default_left":[0,0,0,0,0,0,0,0,0,0,0,0,0,0,0,0,0,0,0,0,0,0,0,0,0,0,0,0,0,0,0,0,0,0,0,0,0,0,0,0,0,0,0,0,0,0,0],"id":26,"left_children":[1,3,-1,5,7,9,11,13,15,17,19,21,23,25,27,29,-1,31,33,-1,35,37,-1,-1,39,41,-1,-1,43,45,-1,-1,-1,-1,-1,-1,-1,-1,-1,-1,-1,-1,-1,-1,-1,-1,-1],"loss_changes":[7.4182734E3,2.2091038E3,0E0,4.5501E2,1.1629639E1,3.7730664E2,3.767842E1,1.3182373E0,1.7642494E1,3.9277905E2,1.0373901E1,8.284898E1,7.955534E1,5.1971436E-1,5.816812E1,3.414135E-1,0E0,3.3868677E2,4.8958397E1,0E0,2.9060242E1,8.592981E0,0E0,0E0,1.2167549E2,9.674316E0,0E0,0E0,8.074951E-2,4.111559E0,0E0,0E0,0E0,0E0,0E0,0E0,0E0,0E0,0E0,0E0,0E0,0E0,0E0,0E0,0E0,0E0,0E0],"parents":[2147483647,0,0,1,1,3,3,4,4,5,5,6,6,7,7,8,8,9,9,10,10,11,11,12,12,13,13,14,14,15,15,17,17,18,18,20,20,21,21,24,24,25,25,28,28,29,29],"right_children":[2,4,-1,6,8,10,12,14,16,18,20,22,24,26,28,30,-1,32,34,-1,36,38,-1,-1,40,42,-1,-1,44,46,-1,-1,-1,-1,-1,-1,-1,-1,-1,-1,-1,-1,-1,-1,-1,-1,-1],"split_conditions":[9.997E3,1E0,5.7605784E-2,2.2068875E5,3.3635547E5,3.988416E6,5.476025E6,3.049649E3,2.933E3,6.5183902E4,1.6992773E5,4.5753625E6,5.5165375E6,3.134809E4,8.2436734E4,2.857E3,-5.6554735E-2,8.609744E0,2.3672652E6,-5.8379274E-2,5.729822E6,4.588205E6,-5.8222145E-2,5.7398338E-2,6.939958E6,7.706201E2,6.564125E-2,-6.644084E-2,8.942E3,6.7886635E6,5.7283413E-2,-5.6582917E-2,-2.3506861E-2,3.021617E-2,-1.0032717E-2,-1.3505491E-2,-5.844086E-2,1.3984174E-2,5.604262E-2,-3.916299E-2,2.883996E-2,5.9631255E-2,-4.506431E-2,5.9826102E-2,3.9400786E-2,-3.7413448E-2,4.6607025E-2],"split_indices":[4,9,0,8,8,1,3,8,4,8,8,0,1,3,3,4,0,8,1,0,0,3,0,0,3,8,0,0,4,0,0,0,0,0,0,0,0,0,0,0,0,0,0,0,0,0,0],"split_type":[0,0,0,0,0,0,0,0,0,0,0,0,0,0,0,0,0,0,0,0,0,0,0,0,0,0,0,0,0,0,0,0,0,0,0,0,0,0,0,0,0,0,0,0,0,0,0],"sum_hessian":[1.6347486E4,1.2109835E4,4.2376514E3,1.1258823E4,8.5101154E2,1.0689817E4,5.690058E2,8.328428E2,1.8168774E1,9.654384E3,1.0354337E3,9.498119E1,4.740246E2,5.596897E2,2.7315308E2,1.3306526E1,4.8622465E0,9.210197E3,4.4418652E2,8.699355E2,1.6549821E2,4.9407867E1,4.5573326E1,1.2967621E2,3.4434836E2,3.922907E2,1.6739902E2,8.726301E0,2.6442676E2,6.541187E0,6.7653394E0,8.5270636E2,8.357491E3,3.4831506E2,9.587146E1,5.3974182E1,1.11524025E2,2.6390787E1,2.3017082E1,8.73396E1,2.5700876E2,3.9074994E2,1.5407801E0,2.5621487E2,8.211878E0,1.0670401E0,5.474147E0],"tree_param":{"num_deleted":"0","num_feature":"10","num_nodes":"47","size_leaf_vector":"1"}},{"base_weights":[-9.166388E-3,1.1502526E0,-8.8280267E-1,1.1675255E0,-9.838472E-1,-5.8861423E-2,1.2456911E0,-3.996759E-2,1.1681099E0,-7.217455E-2,5.3469744E-2,6.484567E-2,5.720077E-2,1.1964716E0,5.732424E-2,6.077085E-2,5.6730967E-2],"categories":[],"categories_nodes":[],"categories_segments":[],"categories_sizes":[],"default_left":[0,0,0,0,0,0,0,0,0,0,0,0,0,0,0,0,0],"id":27,"left_children":[1,3,5,7,9,-1,11,-1,13,-1,-1,-1,-1,15,-1,-1,-1],"loss_changes":[1.5967352E4,2.5085254E2,5.63526E3,8.657227E0,5.3383976E1,0E0,4.208008E0,0E0,2.7490234E0,0E0,0E0,0E0,0E0,2E0,0E0,0E0,0E0],"parents":[2147483647,0,0,1,1,2,2,3,3,4,4,6,6,8,8,13,13],"right_children":[2,4,6,8,10,-1,12,-1,14,-1,-1,-1,-1,16,-1,-1,-1],"split_conditions":[-3.4534708E-2,1E0,1E0,5.5460825E0,9.997E3,-5.8861423E-2,9.997E3,-3.996759E-2,9.53E3,-7.217455E-2,5.3469744E-2,6.484567E-2,5.720077E-2,-1.282133E-1,5.732424E-2,6.077085E-2,5.6730967E-2],"split_indices":[6,9,9,8,4,0,4,0,4,0,0,0,0,6,0,0,0],"split_type":[0,0,0,0,0,0,0,0,0,0,0,0,0,0,0,0,0],"sum_hessian":[1.576183E4,6.772974E3,8.988856E3,6.7190444E3,5.3929558E1,7.8969507E3,1.0919056E3,1.589729E0,6.7174546E3,4.4307697E1,9.621859E0,7.182898E2,3.7361588E2,2.8825793E3,3.8348752E3,2.1923967E3,6.901828E2],"tree_param":{"num_deleted":"0","num_feature":"10","num_nodes":"17","size_leaf_vector":"1"}},{"base_weights":[-1.746693E-2,1.140452E0,-8.860472E-1,1.1579452E0,-1.1651511E0,-5.8357593E-2,6.1415296E-2,-4.0826153E-2,5.793032E-2,-3.173411E-1,-7.026102E-2,2.3686498E-1,-5.6566056E-2,-5.2102488E-2,4.816329E-2],"categories":[],"categories_nodes":[],"categories_segments":[],"categories_sizes":[],"default_left":[0,0,0,0,0,0,0,0,0,0,0,0,0,0,0],"id":28,"left_children":[1,3,5,7,9,-1,-1,-1,-1,11,-1,13,-1,-1,-1],"loss_changes":[1.50919E4,2.6075E2,5.0974683E3,9.28125E0,9.512741E0,0E0,0E0,0E0,0E0,5.721553E0,0E0,8.453588E0,0E0,0E0,0E0],"parents":[2147483647,0,0,1,1,2,2,3,3,4,4,9,9,11,11],"right_children":[2,4,6,8,10,-1,-1,-1,-1,12,-1,14,-1,-1,-1],"split_conditions":[-3.4534708E-2,1E0,1E0,5.7701597E0,-1.752123E-1,-5.8357593E-2,6.1415296E-2,-4.0826153E-2,5.793032E-2,2.3586904E3,-7.026102E-2,2.1407961E3,-5.6566056E-2,-5.2102488E-2,4.816329E-2],"split_indices":[6,9,9,8,6,0,0,0,0,0,0,0,0,0,0],"split_type":[0,0,0,0,0,0,0,0,0,0,0,0,0,0,0],"sum_hessian":[1.500368E4,6.430611E3,8.573068E3,6.382682E3,4.792902E1,7.567423E3,1.0056456E3,1.7237805E0,6.380958E3,1.1089181E1,3.683984E1,7.0191374E0,4.070043E0,2.3851898E0,4.6339474E0],"tree_param":{"num_deleted":"0","num_feature":"10","num_nodes":"15","size_leaf_vector":"1"}},{"base_weights":[8.739479E-3,1.13238E0,-8.3897805E-1,1.1496148E0,-1.1452464E0,-5.788311E-2,1.2191621E0,-3.4392137E-2,1.150066E0,-6.910647E-2,4.753728E-2,6.3205406E-2,5.638277E-2,1.1746458E0,5.6515496E-2,5.9592124E-2,1.118923E0,5.6280106E-2,4.1258167E-2],"categories":[],"categories_nodes":[],"categories_segments":[],"categories_sizes":[],"default_left":[0,0,0,0,0,0,0,0,0,0,0,0,0,0,0,0,0,0,0],"id":29,"left_children":[1,3,5,7,9,-1,11,-1,13,-1,-1,-1,-1,15,-1,-1,17,-1,-1],"loss_changes":[1.4041421E4,2.5014941E2,5.512407E3,6.008789E0,2.5199749E1,0E0,3.209961E0,0E0,1.7265625E0,0E0,0E0,0E0,0E0,1.328125E0,0E0,0E0,3.885498E-1,0E0,0E0],"parents":[2147483647,0,0,1,1,2,2,3,3,4,4,6,6,8,8,13,13,16,16],"right_children":[2,4,6,8,10,-1,12,-1,14,-1,-1,-1,-1,16,-1,-1,18,-1,-1],"split_conditions":[-3.4534708E-2,1E0,1E0,5.7701597E0,9.997E3,-5.788311E-2,9.997E3,-3.4392137E-2,9.53E3,-6.910647E-2,4.753728E-2,6.3205406E-2,5.638277E-2,-1.282133E-1,5.6515496E-2,5.9592124E-2,1.1016186E5,5.6280106E-2,4.1258167E-2],"split_indices":[6,9,9,8,4,0,4,0,4,0,0,0,0,6,0,0,7,0,0],"split_type":[0,0,0,0,0,0,0,0,0,0,0,0,0,0,0,0,0,0,0],"sum_hessian":[1.4739192E4,6.3379595E3,8.401233E3,6.2908516E3,4.7107677E1,7.2751763E3,1.1260565E3,1.1704202E0,6.289681E3,4.2630306E1,4.4773693E0,7.465531E2,3.795034E2,2.776637E3,3.5130442E3,2.10624E3,6.703969E2,6.527243E2,1.7672602E1],"tree_param":{"num_deleted":"0","num_feature":"10","num_nodes":"19","size_leaf_vector":"1"}},{"base_weights":[-6.0989675E-3,-3.8358703E-1,5.597196E-2,-4.9678797E-1,1.0925666E0,-5.3743327E-1,3.8333446E-1,1.1081146E0,3.4519446E-1,-4.7992644E-1,-1.0556297E0,-3.2768255E-1,5.1058733E-1,3.380531E-1,1.1147381E0,8.436976E-1,-5.0895084E-2,-1.0974923E0,-4.188298E-1,-5.6688506E-2,-7.405251E-1,6.208364E-1,-5.6262907E-2,1.0374032E0,2.6459187E-1,-4.3855052E-2,4.779985E-2,1.1538703E0,1.0206736E0,4.9601611E-1,5.3258933E-2,-5.6395777E-2,-4.6182644E-2,-2.2761775E-2,1.5998444E-2,-1.8135786E-2,-5.690012E-2,-4.977378E-2,5.4366775E-2,1.5909912E-2,5.5880457E-2,-4.792692E-2,3.0226244E-2,3.3848967E-2,5.795327E-2,-6.0432732E-2,5.505806E-2,-3.595309E-2,4.340611E-2],"categories":[],"categories_nodes":[],"categories_segments":[],"categories_sizes":[],"default_left":[0,0,0,0,0,0,0,0,0,0,0,0,0,0,0,0,0,0,0,0,0,0,0,0,0,0,0,0,0,0,0,0,0,0,0,0,0,0,0,0,0,0,0,0,0,0,0,0,0],"id":30,"left_children":[1,3,-1,5,7,9,11,13,15,17,19,21,23,25,27,29,-1,31,33,-1,35,37,-1,39,41,-1,-1,43,45,47,-1,-1,-1,-1,-1,-1,-1,-1,-1,-1,-1,-1,-1,-1,-1,-1,-1,-1,-1],"loss_changes":[5.917592E3,1.7433777E3,0E0,3.4675928E2,8.253113E0,2.7545117E2,3.891238E1,3.3342285E0,1.21371975E1,3.141128E2,2.1916016E1,5.0337353E1,4.6846916E1,6.5753098E0,1.4760132E0,4.496193E-1,0E0,2.9245605E0,2.0424304E2,0E0,2.7597702E1,2.4167007E1,0E0,6.3010635E0,1.0419607E2,0E0,0E0,4.5758057E-1,4.0889908E1,3.7048845E0,0E0,0E0,0E0,0E0,0E0,0E0,0E0,0E0,0E0,0E0,0E0,0E0,0E0,0E0,0E0,0E0,0E0,0E0,0E0],"parents":[2147483647,0,0,1,1,3,3,4,4,5,5,6,6,7,7,8,8,9,9,10,10,11,11,12,12,13,13,14,14,15,15,17,17,18,18,20,20,21,21,23,23,24,24,27,27,28,28,29,29],"right_children":[2,4,-1,6,8,10,12,14,16,18,20,22,24,26,28,30,-1,32,34,-1,36,38,-1,40,42,-1,-1,44,46,48,-1,-1,-1,-1,-1,-1,-1,-1,-1,-1,-1,-1,-1,-1,-1,-1,-1,-1,-1],"split_conditions":[9.997E3,1E0,5.597196E-2,2.377931E5,3.3635547E5,3.9099828E6,5.476025E6,4.48E2,2.933E3,9.03173E0,1.6992773E5,4.5753625E6,5.503318E6,1.6202775E5,2.8847825E3,2.857E3,-5.0895084E-2,7.621967E0,6.5183902E4,-5.6688506E-2,6.5452485E6,4.588205E6,-5.6262907E-2,5.5788415E6,6.939958E6,-4.3855052E-2,4.779985E-2,3.23721E0,8.2436734E4,6.7886635E6,5.3258933E-2,-5.6395777E-2,-4.6182644E-2,-2.2761775E-2,1.5998444E-2,-1.8135786E-2,-5.690012E-2,-4.977378E-2,5.4366775E-2,1.5909912E-2,5.5880457E-2,-4.792692E-2,3.0226244E-2,3.3848967E-2,5.795327E-2,-6.0432732E-2,5.505806E-2,-3.595309E-2,4.340611E-2],"split_indices":[4,9,0,8,8,2,3,4,4,8,8,0,2,0,8,4,0,8,8,0,0,3,0,3,3,0,0,7,3,0,0,0,0,0,0,0,0,0,0,0,0,0,0,0,0,0,0,0,0],"split_type":[0,0,0,0,0,0,0,0,0,0,0,0,0,0,0,0,0,0,0,0,0,0,0,0,0,0,0,0,0,0,0,0,0,0,0,0,0,0,0,0,0,0,0,0,0,0,0,0,0],"sum_hessian":[1.3925757E4,1.0428769E4,3.4969883E3,9.686602E3,7.421673E2,9.25938E3,4.2722202E2,7.265694E2,1.5597892E1,8.336196E3,9.231832E2,6.461498E1,3.6260706E2,6.639933E0,7.1992944E2,1.170006E1,3.8978312E0,7.489394E2,7.587257E3,7.37659E2,1.8552422E2,2.9615847E1,3.4999134E1,1.1439826E2,2.4820879E2,2.0969687E0,4.5429645E0,5.0046274E2,2.194667E2,5.8135204E0,5.88654E0,6.327206E2,1.1621879E2,7.2313047E3,3.5595242E2,9.609588E1,8.942834E1,6.3792577E0,2.323659E1,1.1976092E1,1.02422165E2,5.3584366E1,1.9462442E2,6.8080463E0,4.936547E2,7.159072E0,2.1230763E2,1.1443478E0,4.669173E0],"tree_param":{"num_deleted":"0","num_feature":"10","num_nodes":"49","size_leaf_vector":"1"}},{"base_weights":[-9.112765E-4,1.1182073E0,-8.561305E-1,1.1373672E0,-6.851109E-2,-5.724126E-2,1.1935143E0,-3.7690144E-2,1.1379696E0,6.1726607E-2,5.5670436E-2,1.162793E0,1.117025E0,5.92072E-2,5.494651E-2,2.5489736E-2,5.5892687E-2],"categories":[],"categories_nodes":[],"categories_segments":[],"categories_sizes":[],"default_left":[0,0,0,0,0,0,0,0,0,0,0,0,0,0,0,0,0],"id":31,"left_children":[1,3,5,7,-1,-1,9,-1,11,-1,-1,13,15,-1,-1,-1,-1],"loss_changes":[1.310073E4,2.8425244E2,4.592437E3,7.561035E0,0E0,0E0,1.7745361E0,0E0,1.7602539E0,0E0,0E0,2.3364258E0,1.048584E0,0E0,0E0,0E0,0E0],"parents":[2147483647,0,0,1,1,2,2,3,3,6,6,8,8,11,11,12,12],"right_children":[2,4,6,8,-1,-1,10,-1,12,-1,-1,14,16,-1,-1,-1,-1],"split_conditions":[-3.4534708E-2,1E0,1E0,5.7701597E0,-6.851109E-2,-5.724126E-2,9.997E3,-3.7690144E-2,9.53E3,6.1726607E-2,5.5670436E-2,-1.282133E-1,9.649E3,5.92072E-2,5.494651E-2,2.5489736E-2,5.5892687E-2],"split_indices":[6,9,9,8,0,0,4,0,4,0,0,6,4,0,0,0,0],"split_type":[0,0,0,0,0,0,0,0,0,0,0,0,0,0,0,0,0],"sum_hessian":[1.3686061E4,5.928225E3,7.7578354E3,5.883468E3,4.4757557E1,6.800429E3,9.574064E2,1.4750844E0,5.8819927E3,6.236553E2,3.337511E2,2.666797E3,3.2151953E3,1.9854661E3,6.8133105E2,5.222259E0,3.2099731E3],"tree_param":{"num_deleted":"0","num_feature":"10","num_nodes":"17","size_leaf_vector":"1"}},{"base_weights":[1.47945965E-2,1.112075E0,-8.4114575E-1,1.1298978E0,-9.1577107E-1,-5.6841236E-2,1.1840066E0,-3.836251E-2,1.1305534E0,-6.710404E-2,5.1926512E-2,6.100566E-2,5.534413E-2,1.1545476E0,5.549395E-2,5.868984E-2,1.0953981E0,5.4904163E-2,2.8037308E-2],"categories":[],"categories_nodes":[],"categories_segments":[],"categories_sizes":[],"default_left":[0,0,0,0,0,0,0,0,0,0,0,0,0,0,0,0,0,0,0],"id":32,"left_children":[1,3,5,7,9,-1,11,-1,13,-1,-1,-1,-1,15,-1,-1,17,-1,-1],"loss_changes":[1.24568125E4,2.1109717E2,4.462948E3,8.03418E0,4.4042664E1,0E0,1.2943115E0,0E0,1.5761719E0,0E0,0E0,0E0,0E0,1.7211914E0,0E0,0E0,3.3685303E-1,0E0,0E0],"parents":[2147483647,0,0,1,1,2,2,3,3,4,4,6,6,8,8,13,13,16,16],"right_children":[2,4,6,8,10,-1,12,-1,14,-1,-1,-1,-1,16,-1,-1,18,-1,-1],"split_conditions":[-3.4534708E-2,1E0,1E0,5.7701597E0,9.997E3,-5.6841236E-2,9.997E3,-3.836251E-2,9.53E3,-6.710404E-2,5.1926512E-2,6.100566E-2,5.534413E-2,-1.282133E-1,5.549395E-2,5.868984E-2,2.0731852E5,5.4904163E-2,2.8037308E-2],"split_indices":[6,9,9,8,4,0,4,0,4,0,0,0,0,6,0,0,7,0,0],"split_type":[0,0,0,0,0,0,0,0,0,0,0,0,0,0,0,0,0,0,0],"sum_hessian":[1.3261128E4,5.81116E3,7.4499673E3,5.7609697E3,5.0190666E1,6.501208E3,9.487594E2,1.5860882E0,5.7593833E3,4.1459904E1,8.730763E0,6.3612787E2,3.126315E2,2.6402747E3,3.1191086E3,1.9777922E3,6.6248254E2,6.581234E2,4.359121E0],"tree_param":{"num_deleted":"0","num_feature":"10","num_nodes":"19","size_leaf_vector":"1"}},{"base_weights":[4.168467E-3,1.1026151E0,-8.3721733E-1,1.1217413E0,-1.1029861E0,-5.6459766E-2,1.1715301E0,-3.7158992E-2,1.1223992E0,-6.6053025E-2,4.6427187E-2,6.030139E-2,5.5045485E-2,1.1438576E0,5.5192985E-2,5.820169E-2,1.0844183E0,5.4807853E-2,4.598438E-2],"categories":[],"categories_nodes":[],"categories_segments":[],"categories_sizes":[],"default_left":[0,0,0,0,0,0,0,0,0,0,0,0,0,0,0,0,0,0,0],"id":33,"left_children":[1,3,5,7,9,-1,11,-1,13,-1,-1,-1,-1,15,-1,-1,17,-1,-1],"loss_changes":[1.16743545E4,2.3236035E2,4.196489E3,7.498535E0,2.2317432E1,0E0,8.848877E-1,0E0,8.9746094E-1,0E0,0E0,0E0,0E0,1.7236328E0,0E0,0E0,2.4017334E-1,0E0,0E0],"parents":[2147483647,0,0,1,1,2,2,3,3,4,4,6,6,8,8,13,13,16,16],"right_children":[2,4,6,8,10,-1,12,-1,14,-1,-1,-1,-1,16,-1,-1,18,-1,-1],"split_conditions":[-3.4534708E-2,1E0,1E0,5.5460825E0,9.997E3,-5.6459766E-2,9.997E3,-3.7158992E-2,9.53E3,-6.6053025E-2,4.6427187E-2,6.030139E-2,5.5045485E-2,-1.282133E-1,5.5192985E-2,5.820169E-2,3.9448175E6,5.4807853E-2,4.598438E-2],"split_indices":[6,9,9,8,4,0,4,0,4,0,0,0,0,6,0,0,0,0,0],"split_type":[0,0,0,0,0,0,0,0,0,0,0,0,0,0,0,0,0,0,0],"sum_hessian":[1.262961E4,5.477851E3,7.15176E3,5.4312446E3,4.6606346E1,6.2445337E3,9.0722565E2,1.5172044E0,5.4297275E3,4.2404198E1,4.202151E0,5.986909E2,3.0853476E2,2.4886123E3,2.9411155E3,1.8440729E3,6.4453937E2,5.9638635E2,4.8152985E1],"tree_param":{"num_deleted":"0","num_feature":"10","num_nodes":"19","size_leaf_vector":"1"}},{"base_weights":[4.999096E-3,1.0948509E0,-8.186103E-1,-3.7322592E-2,1.0955341E0,-9.0409666E-1,1.0573486E0,5.5143125E-2,1.0423054E0,-9.412267E-1,-8.436867E-1,9.456664E-1,5.4694325E-2,1.5120673E-2,1.0479968E0,-9.445218E-1,-2.5824705E-1,-1.0018418E0,-8.1220466E-1,4.9559083E-2,4.5996708E-1,5.256067E-2,2.3174575E-2,-9.263904E-1,-1.052034E0,4.9974237E-2,-5.260572E-2,-6.808117E-1,-1.0484319E0,-4.817534E-1,-8.621663E-1,1.2506515E-1,4.1347954E-2,-4.725566E-2,-2.95771E-2,6.8791965E-3,-5.3580392E-2,-5.372709E-2,2.380838E-2,-4.0299427E-2,-5.5554625E-2,-3.0449713E-2,5.670288E-3,-4.8339743E-2,-3.9155092E-2,3.537513E-2,-4.505334E-2],"categories":[],"categories_nodes":[],"categories_segments":[],"categories_sizes":[],"default_left":[0,0,0,0,0,0,0,0,0,0,0,0,0,0,0,0,0,0,0,0,0,0,0,0,0,0,0,0,0,0,0,0,0,0,0,0,0,0,0,0,0,0,0,0,0,0,0],"id":34,"left_children":[1,3,5,-1,7,9,11,-1,13,15,17,19,-1,-1,21,23,25,27,29,-1,31,-1,-1,33,35,-1,-1,37,39,41,43,45,-1,-1,-1,-1,-1,-1,-1,-1,-1,-1,-1,-1,-1,-1,-1],"loss_changes":[1.0845343E4,7.36084E0,1.1045835E3,0E0,8.779297E-1,1.3970703E1,1.9137573E-1,0E0,2.4091797E0,8.911133E0,1.1710205E1,1.3442459E0,0E0,0E0,7.1984863E-1,6.916748E0,2.192821E1,5.467743E0,3.430591E1,0E0,9.834316E-1,0E0,0E0,2.1210205E1,1.3578613E1,0E0,0E0,2.5671213E1,4.559265E0,2.115728E1,1.4344849E1,4.1050024E0,0E0,0E0,0E0,0E0,0E0,0E0,0E0,0E0,0E0,0E0,0E0,0E0,0E0,0E0,0E0],"parents":[2147483647,0,0,1,1,2,2,4,4,5,5,6,6,8,8,9,9,10,10,11,11,14,14,15,15,16,16,17,17,18,18,20,20,23,23,24,24,27,27,28,28,29,29,30,30,31,31],"right_children":[2,4,6,-1,8,10,12,-1,14,16,18,20,-1,-1,22,24,26,28,30,-1,32,-1,-1,34,36,-1,-1,38,40,42,44,46,-1,-1,-1,-1,-1,-1,-1,-1,-1,-1,-1,-1,-1,-1,-1],"split_conditions":[-3.4534708E-2,5.7701597E0,9.322065E-1,-3.7322592E-2,-1.282133E-1,1.7746033E-1,2.9806263E0,5.5143125E-2,-1.0621556E0,8.345457E6,1.9206038E1,6.392045E-3,5.4694325E-2,1.5120673E-2,2.0731852E5,5.315054E4,7.898026E6,1.5982751E2,3.41276E1,4.9559083E-2,6.133214E5,5.256067E-2,2.3174575E-2,4.166636E4,-2.650289E-2,4.9974237E-2,-5.260572E-2,5.2685165E0,-1.0189872E-2,7.2988464E1,1.9353018E3,1.7395062E2,4.1347954E-2,-4.725566E-2,-2.95771E-2,6.8791965E-3,-5.3580392E-2,-5.372709E-2,2.380838E-2,-4.0299427E-2,-5.5554625E-2,-3.0449713E-2,5.670288E-3,-4.8339743E-2,-3.9155092E-2,3.537513E-2,-4.505334E-2],"split_indices":[6,8,5,0,6,5,5,0,5,3,8,6,0,0,7,7,0,2,7,0,0,0,0,8,6,0,0,8,6,8,8,0,0,0,0,0,0,0,0,0,0,0,0,0,0,0,0],"split_type":[0,0,0,0,0,0,0,0,0,0,0,0,0,0,0,0,0,0,0,0,0,0,0,0,0,0,0,0,0,0,0,0,0,0,0,0,0,0,0,0,0,0,0,0,0,0,0],"sum_hessian":[1.2080438E4,5.1996304E3,6.8808076E3,1.5239363E0,5.1981064E3,6.5814146E3,2.993932E2,4.551719E3,6.4638763E2,4.0670698E3,2.5143447E3,8.043039E1,2.1896278E2,5.3473487E0,6.410403E2,4.0471611E3,1.990858E1,4.1229413E2,2.1020505E3,7.258743E1,7.8429585E0,6.3673773E2,4.3025565E0,3.4713523E3,5.7580884E2,7.6034126E0,1.2305168E1,5.423047E1,3.5806366E2,2.774711E2,1.8245795E3,4.8018084E0,3.0411499E0,3.2858071E3,1.8554524E2,9.223344E0,5.665855E2,4.051434E1,1.3716129E1,7.638428E1,2.8167938E2,2.2857922E2,4.8891884E1,7.804958E2,1.0440836E3,3.2612321E0,1.5405762E0],"tree_param":{"num_deleted":"0","num_feature":"10","num_nodes":"47","size_leaf_vector":"1"}},{"base_weights":[1.7689933E-3,1.0879046E0,-8.131567E-1,1.1070228E0,-9.127962E-1,-5.583769E-2,1.1675156E0,1.114741E0,1.056036E0,-6.559053E-2,5.0294787E-2,6.013223E-2,5.450938E-2,5.7299525E-2,5.4651435E-2,5.3007312E-2,1.41036585E-2],"categories":[],"categories_nodes":[],"categories_segments":[],"categories_sizes":[],"default_left":[0,0,0,0,0,0,0,0,0,0,0,0,0,0,0,0,0],"id":35,"left_children":[1,3,5,7,9,-1,11,13,15,-1,-1,-1,-1,-1,-1,-1,-1],"loss_changes":[1.0297415E4,1.9176562E2,3.9982144E3,7.675781E-1,3.787808E1,0E0,1.0899658E0,1.6459961E0,1.8276367E0,0E0,0E0,0E0,0E0,0E0,0E0,0E0,0E0],"parents":[2147483647,0,0,1,1,2,2,3,3,4,4,6,6,7,7,8,8],"right_children":[2,4,6,8,10,-1,12,14,16,-1,-1,-1,-1,-1,-1,-1,-1],"split_conditions":[-3.4534708E-2,1E0,1E0,-1.282133E-1,9.997E3,-5.583769E-2,9.997E3,9.997E3,6.5452485E6,-6.559053E-2,5.0294787E-2,6.013223E-2,5.450938E-2,5.7299525E-2,5.4651435E-2,5.3007312E-2,1.41036585E-2],"split_indices":[6,9,9,6,4,0,4,4,0,0,0,0,0,0,0,0,0],"split_type":[0,0,0,0,0,0,0,0,0,0,0,0,0,0,0,0,0],"sum_hessian":[1.1631923E4,4.986099E3,6.6458237E3,4.9393467E3,4.6752373E1,5.7629204E3,8.829033E2,4.271824E3,6.6752246E2,3.8965366E1,7.7870035E0,5.970986E2,2.8580475E2,1.7300591E3,2.5417651E3,6.6362836E2,3.8940904E0],"tree_param":{"num_deleted":"0","num_feature":"10","num_nodes":"17","size_leaf_vector":"1"}},{"base_weights":[-7.898957E-3,1.0806626E0,-8.3052504E-1,5.447623E-2,1.0204784E0,-9.1151816E-1,1.0402374E0,5.118099E-2,2.2319617E-2,-9.542687E-1,-8.42442E-1,9.270347E-1,5.413736E-2,-9.576686E-1,-2.4667774E-1,-6.35375E-1,-8.709776E-1,4.783113E-2,5.4242986E-1,-4.7633862E-1,-9.6239233E-1,4.886208E-2,-5.1463455E-2,-8.212751E-1,-3.7541962E-1,-8.869199E-1,-6.2556833E-1,2.4102402E-1,4.0186744E-2,-3.552684E-2,3.8738858E-2,-4.7513768E-2,-5.475861E-2,-3.3435382E-2,-5.4722678E-2,2.660274E-2,-2.4989115E-2,-5.207128E-2,-4.1943837E-2,4.2263217E-2,-5.476409E-2,-3.7339885E-2,3.436147E-2],"categories":[],"categories_nodes":[],"categories_segments":[],"categories_sizes":[],"default_left":[0,0,0,0,0,0,0,0,0,0,0,0,0,0,0,0,0,0,0,0,0,0,0,0,0,0,0,0,0,0,0,0,0,0,0,0,0,0,0,0,0,0,0],"id":36,"left_children":[1,3,5,-1,7,9,11,-1,-1,13,15,17,-1,19,21,23,25,-1,27,29,31,-1,-1,33,35,37,39,41,-1,-1,-1,-1,-1,-1,-1,-1,-1,-1,-1,-1,-1,-1,-1],"loss_changes":[9.899641E3,1.4262695E0,9.550176E2,0E0,6.729126E-1,1.7020996E1,2.559204E-1,0E0,0E0,8.715332E0,1.3131348E1,3.734436E-1,0E0,7.960449E0,1.9338825E1,1.3426254E1,7.3983154E0,0E0,4.2936158E-1,1.167479E1,4.8566895E0,0E0,0E0,6.139412E0,1.384734E1,1.3277832E1,8.893887E1,2.7620633E0,0E0,0E0,0E0,0E0,0E0,0E0,0E0,0E0,0E0,0E0,0E0,0E0,0E0,0E0,0E0],"parents":[2147483647,0,0,1,1,2,2,4,4,5,5,6,6,9,9,10,10,11,11,13,13,14,14,15,15,16,16,18,18,19,19,20,20,23,23,24,24,25,25,26,26,27,27],"right_children":[2,4,6,-1,8,10,12,-1,-1,14,16,18,-1,20,22,24,26,-1,28,30,32,-1,-1,34,36,38,40,42,-1,-1,-1,-1,-1,-1,-1,-1,-1,-1,-1,-1,-1,-1,-1],"split_conditions":[-3.4534708E-2,-1.282133E-1,9.997E3,5.447623E-2,2.0731852E5,6.339E3,1.9925E4,5.118099E-2,2.2319617E-2,8.345457E6,6.733E3,1.0847724E-2,5.413736E-2,-2.650289E-2,7.898026E6,2.0447434E3,6.3238095E6,4.783113E-2,6.133214E5,1.6583772E5,1.0721104E5,4.886208E-2,-5.1463455E-2,8.992584E1,2.4060261E3,-7.6119723E-3,6.335854E6,2.0927547E-2,4.0186744E-2,-3.552684E-2,3.8738858E-2,-4.7513768E-2,-5.475861E-2,-3.3435382E-2,-5.4722678E-2,2.660274E-2,-2.4989115E-2,-5.207128E-2,-4.1943837E-2,4.2263217E-2,-5.476409E-2,-3.7339885E-2,3.436147E-2],"split_indices":[6,6,4,0,7,4,4,0,0,3,4,6,0,6,0,7,3,0,0,7,7,0,0,7,7,6,2,6,0,0,0,0,0,0,0,0,0,0,0,0,0,0,0],"split_type":[0,0,0,0,0,0,0,0,0,0,0,0,0,0,0,0,0,0,0,0,0,0,0,0,0,0,0,0,0,0,0,0,0,0,0,0,0,0,0,0,0,0,0],"sum_hessian":[1.1053131E4,4.7574272E3,6.2957036E3,4.131909E3,6.255178E2,6.034939E3,2.6076495E2,6.2133484E2,4.1829596E0,3.7199124E3,2.3150264E3,7.7415794E1,1.8334915E2,3.7017722E3,1.8140148E1,2.8320825E2,2.0318182E3,7.050455E1,6.911251E0,3.6965668E1,3.6648064E3,6.97812E0,1.1162028E1,1.6386519E2,1.1934306E2,1.9054237E3,1.2639457E2,4.10206E0,2.8091915E0,3.1501024E1,5.464644E0,3.3658123E3,2.989944E2,1.0735586E2,5.6509327E1,1.398877E1,1.05354294E2,4.4704898E2,1.4583746E3,3.0400553E1,9.599402E1,1.0667642E0,3.0352955E0],"tree_param":{"num_deleted":"0","num_feature":"10","num_nodes":"43","size_leaf_vector":"1"}},{"base_weights":[2.895175E-3,-3.44989E-1,5.3953655E-2,-4.689748E-1,1.0439466E0,-5.0800925E-1,3.7831035E-1,1.0600909E0,2.1649687E-1,-4.555056E-1,-1.0025611E0,-4.549795E-1,5.231083E-1,1.1003807E0,9.657994E-1,7.7795804E-1,-4.8967037E-2,-1.0703722E0,-4.0055764E-1,-1.0691688E0,-4.8963106E-1,3.405004E-1,-5.417014E-2,5.3454828E-2,3.0088127E-1,1.0659528E0,5.97103E-2,-5.6239434E-2,1.0405333E0,2.157796E-2,4.8443653E-2,-5.437965E-2,-4.6385102E-2,2.8861094E-2,-2.1969134E-2,-5.4712832E-2,-4.2098418E-2,-4.72525E-4,-5.4512557E-2,-4.6820436E-2,4.07243E-2,-5.4383647E-2,2.7600462E-2,5.3846784E-2,-4.086215E-2,5.2510858E-2,3.2713383E-2],"categories":[],"categories_nodes":[],"categories_segments":[],"categories_sizes":[],"default_left":[0,0,0,0,0,0,0,0,0,0,0,0,0,0,0,0,0,0,0,0,0,0,0,0,0,0,0,0,0,0,0,0,0,0,0,0,0,0,0,0,0,0,0,0,0,0,0],"id":37,"left_children":[1,3,-1,5,7,9,11,13,15,17,19,21,23,25,27,29,-1,31,33,35,37,39,-1,-1,41,43,-1,-1,45,-1,-1,-1,-1,-1,-1,-1,-1,-1,-1,-1,-1,-1,-1,-1,-1,-1,-1],"loss_changes":[4.027969E3,1.4006467E3,0E0,2.4708374E2,8.675659E0,1.8485168E2,3.9975594E1,1.4203491E0,1.0171244E1,2.1760828E2,2.2848999E1,2.5009258E1,3.377883E1,1.8304443E-1,3.301912E1,2.4941349E-1,0E0,2.902832E-1,2.2520764E2,2.5250854E0,2.3197971E1,1.4389457E1,0E0,0E0,7.0738525E1,7.8930664E0,0E0,0E0,5.0979614E-2,0E0,0E0,0E0,0E0,0E0,0E0,0E0,0E0,0E0,0E0,0E0,0E0,0E0,0E0,0E0,0E0,0E0,0E0],"parents":[2147483647,0,0,1,1,3,3,4,4,5,5,6,6,7,7,8,8,9,9,10,10,11,11,12,12,13,13,14,14,15,15,17,17,18,18,19,19,20,20,21,21,24,24,25,25,28,28],"right_children":[2,4,-1,6,8,10,12,14,16,18,20,22,24,26,28,30,-1,32,34,36,38,40,-1,-1,42,44,-1,-1,46,-1,-1,-1,-1,-1,-1,-1,-1,-1,-1,-1,-1,-1,-1,-1,-1,-1,-1],"split_conditions":[9.997E3,1E0,5.3953655E-2,2.377931E5,3.3635547E5,3.9448175E6,5.5788415E6,3.049649E3,2.933E3,8.609744E0,1.9655805E5,4.778283E6,5.503318E6,3.533336E4,8.2436734E4,2.857E3,-4.8967037E-2,7.621967E0,2.9759177E2,1.6992773E5,6.4766885E6,4.588205E6,-5.417014E-2,5.3454828E-2,6.7040085E6,1.0353695E3,5.97103E-2,-5.6239434E-2,8.751E3,2.157796E-2,4.8443653E-2,-5.437965E-2,-4.6385102E-2,2.8861094E-2,-2.1969134E-2,-5.4712832E-2,-4.2098418E-2,-4.72525E-4,-5.4512557E-2,-4.6820436E-2,4.07243E-2,-5.4383647E-2,2.7600462E-2,5.3846784E-2,-4.086215E-2,5.2510858E-2,3.2713383E-2],"split_indices":[4,9,0,8,8,0,3,8,4,8,8,1,2,3,3,4,0,8,1,8,1,3,0,0,3,8,0,0,4,0,0,0,0,0,0,0,0,0,0,0,0,0,0,0,0,0,0],"split_type":[0,0,0,0,0,0,0,0,0,0,0,0,0,0,0,0,0,0,0,0,0,0,0,0,0,0,0,0,0,0,0,0,0,0,0,0,0,0,0,0,0,0,0,0,0,0,0],"sum_hessian":[1.0756893E4,8.129604E3,2.6272883E3,7.463981E3,6.6562305E2,7.135642E3,3.283388E2,6.526088E2,1.3014192E1,6.452536E3,6.8310626E2,4.8290764E1,2.8004803E2,4.497611E2,2.0284773E2,9.093923E0,3.9202688E0,5.278153E2,5.9247207E3,6.0363544E2,7.947083E1,2.151478E1,2.6775984E1,7.990909E1,2.0013896E2,3.3807166E2,1.1168946E2,6.516144E0,1.9633159E2,4.389688E0,4.7042346E0,4.6505826E2,6.2757023E1,2.2574065E2,5.69898E3,5.4017224E2,6.346317E1,4.472781E1,3.474302E1,5.5601697E0,1.595461E1,3.0142393E1,1.6999657E2,3.3653708E2,1.5345514E0,1.8985301E2,6.4785867E0],"tree_param":{"num_deleted":"0","num_feature":"10","num_nodes":"47","size_leaf_vector":"1"}},{"base_weights":[7.710366E-3,1.0689676E0,-7.927791E-1,1.0912458E0,-9.791474E-1,-5.514018E-2,1.1544076E0,-3.752573E-2,1.092043E0,-6.591973E-2,4.868811E-2,5.9375655E-2,5.3787198E-2,1.1018538E0,1.0207716E0,5.6664396E-2,5.3946126E-2,2.0928774E-2,5.125407E-2],"categories":[],"categories_nodes":[],"categories_segments":[],"categories_sizes":[],"default_left":[0,0,0,0,0,0,0,0,0,0,0,0,0,0,0,0,0,0,0],"id":38,"left_children":[1,3,5,7,9,-1,11,-1,13,-1,-1,-1,-1,15,17,-1,-1,-1,-1],"loss_changes":[8.968791E3,2.0819092E2,3.6342424E3,7.413086E0,3.3993774E1,0E0,8.763428E-1,0E0,2.0146484E0,0E0,0E0,0E0,0E0,1.612793E0,1.0159302E0,0E0,0E0,0E0,0E0],"parents":[2147483647,0,0,1,1,2,2,3,3,4,4,6,6,8,8,13,13,14,14],"right_children":[2,4,6,8,10,-1,12,-1,14,-1,-1,-1,-1,16,18,-1,-1,-1,-1],"split_conditions":[-3.4534708E-2,1E0,1E0,5.7701597E0,9.997E3,-5.514018E-2,9.997E3,-3.752573E-2,-1.282133E-1,-6.591973E-2,4.868811E-2,5.9375655E-2,5.3787198E-2,9.997E3,2.5E2,5.6664396E-2,5.3946126E-2,2.0928774E-2,5.125407E-2],"split_indices":[6,9,9,8,4,0,4,0,6,0,0,0,0,4,4,0,0,0,0],"split_type":[0,0,0,0,0,0,0,0,0,0,0,0,0,0,0,0,0,0,0],"sum_hessian":[1.0555419E4,4.5383364E3,6.0170825E3,4.4899644E3,4.837211E1,5.1910195E3,8.2606287E2,1.5357244E0,4.4884287E3,4.1489685E1,6.8824205E0,5.7146655E2,2.5459633E2,3.9326245E3,5.558042E2,1.6383562E3,2.2942683E3,4.6467695E0,5.511575E2],"tree_param":{"num_deleted":"0","num_feature":"10","num_nodes":"19","size_leaf_vector":"1"}},{"base_weights":[1.6691929E-2,1.0653081E0,-7.7515405E-1,1.0862745E0,-9.468144E-1,-5.4866906E-2,1.1467615E0,-3.6917444E-2,1.0870785E0,-6.480642E-2,4.8206795E-2,5.895493E-2,5.35872E-2,1.0966127E0,1.0233673E0,5.6262344E-2,5.373621E-2,8.04315E-1,1.0334896E0,5.2778125E-2,-1.9292237E-2,2.867775E-2,5.181014E-2],"categories":[],"categories_nodes":[],"categories_segments":[],"categories_sizes":[],"default_left":[0,0,0,0,0,0,0,0,0,0,0,0,0,0,0,0,0,0,0,0,0,0,0],"id":39,"left_children":[1,3,5,7,9,-1,11,-1,13,-1,-1,-1,-1,15,17,-1,-1,19,21,-1,-1,-1,-1],"loss_changes":[8.433155E3,1.853711E2,3.5843823E3,7.147461E0,3.168647E1,0E0,7.528076E-1,0E0,1.5039062E0,0E0,0E0,0E0,0E0,1.1391602E0,4.4989014E-1,0E0,0E0,9.386532E0,9.039307E-2,0E0,0E0,0E0,0E0],"parents":[2147483647,0,0,1,1,2,2,3,3,4,4,6,6,8,8,13,13,14,14,17,17,18,18],"right_children":[2,4,6,8,10,-1,12,-1,14,-1,-1,-1,-1,16,18,-1,-1,20,22,-1,-1,-1,-1],"split_conditions":[-3.4534708E-2,1E0,1E0,5.7701597E0,9.997E3,-5.4866906E-2,9.997E3,-3.6917444E-2,-1.282133E-1,-6.480642E-2,4.8206795E-2,5.895493E-2,5.35872E-2,9.959E3,1.5469277E1,5.6262344E-2,5.373621E-2,2.9439557E2,1.76E2,5.2778125E-2,-1.9292237E-2,2.867775E-2,5.181014E-2],"split_indices":[6,9,9,8,4,0,4,0,6,0,0,0,0,4,8,0,0,0,4,0,0,0,0],"split_type":[0,0,0,0,0,0,0,0,0,0,0,0,0,0,0,0,0,0,0,0,0,0,0],"sum_hessian":[1.0154244E4,4.368644E3,5.7856E3,4.3240474E3,4.4596783E1,4.955332E3,8.302677E2,1.5003531E0,4.322547E3,3.7976562E1,6.6202226E0,5.6989197E2,2.6037573E2,3.7457861E3,5.767607E2,1.6009893E3,2.1447969E3,2.9028458E1,5.477322E2,2.406197E1,4.966487E0,4.4577675E0,5.432744E2],"tree_param":{"num_deleted":"0","num_feature":"10","num_nodes":"23","size_leaf_vector":"1"}},{"base_weights":[-1.5385681E-3,1.0568587E0,-7.9191005E-1,1.0795442E0,-6.378573E-2,-5.460317E-2,1.1357863E0,-3.6325406E-2,1.0803763E0,5.8253188E-2,5.3361382E-2,1.0908831E0,1.0099682E0,5.5925082E-2,5.3538498E-2,1.0132312E0,1.5522644E-2,3.9271228E-2,5.113424E-2],"categories":[],"categories_nodes":[],"categories_segments":[],"categories_sizes":[],"default_left":[0,0,0,0,0,0,0,0,0,0,0,0,0,0,0,0,0,0,0],"id":40,"left_children":[1,3,5,7,-1,-1,9,-1,11,-1,-1,13,15,-1,-1,17,-1,-1,-1],"loss_changes":[8.0133154E3,2.1808057E2,3.1743132E3,6.879883E0,0E0,0E0,2.4066162E-1,0E0,1.8979492E0,0E0,0E0,7.553711E-1,9.1796875E-1,0E0,0E0,3.5339355E-1,0E0,0E0,0E0],"parents":[2147483647,0,0,1,1,2,2,3,3,6,6,8,8,11,11,12,12,15,15],"right_children":[2,4,6,8,-1,-1,10,-1,12,-1,-1,14,16,-1,-1,18,-1,-1,-1],"split_conditions":[-3.4534708E-2,1E0,1E0,5.7701597E0,-6.378573E-2,-5.460317E-2,9.322065E-1,-3.6325406E-2,-1.282133E-1,5.8253188E-2,5.3361382E-2,9.322065E-1,1.8888822E5,5.5925082E-2,5.3538498E-2,1.5469277E1,1.5522644E-2,3.9271228E-2,5.113424E-2],"split_indices":[6,9,9,8,0,0,5,0,6,0,0,5,7,0,0,8,0,0,0],"split_type":[0,0,0,0,0,0,0,0,0,0,0,0,0,0,0,0,0,0,0],"sum_hessian":[9.577266E3,4.0942554E3,5.4830107E3,4.055352E3,3.8903267E1,4.744672E3,7.3833905E2,1.4657446E0,4.0538862E3,5.061838E2,2.3215524E2,3.5148706E3,5.390156E2,1.4580906E3,2.05678E3,5.3606665E2,2.949019E0,2.4709833E1,5.1135678E2],"tree_param":{"num_deleted":"0","num_feature":"10","num_nodes":"19","size_leaf_vector":"1"}},{"base_weights":[-2.0103746E-3,1.0518224E0,-7.8384405E-1,1.0728909E0,-8.8676715E-1,-5.435924E-2,1.1295233E0,-3.2590214E-2,1.073574E0,-6.300626E-2,4.8360337E-2,5.7818115E-2,5.3165972E-2,1.0857049E0,9.970247E-1,5.5576224E-2,5.3351413E-2,8.862079E-1,1.0239908E0,5.0406333E-2,-2.5273502E-1,5.222205E-2,4.3890603E-2],"categories":[],"categories_nodes":[],"categories_segments":[],"categories_sizes":[],"default_left":[0,0,0,0,0,0,0,0,0,0,0,0,0,0,0,0,0,0,0,0,0,0,0],"id":41,"left_children":[1,3,5,7,9,-1,11,-1,13,-1,-1,-1,-1,15,17,-1,-1,19,21,-1,-1,-1,-1],"loss_changes":[7.5631436E3,1.6063281E2,3.0598303E3,5.256836E0,3.0692783E1,0E0,5.2612305E-2,0E0,2.508789E0,0E0,0E0,0E0,0E0,4.182129E-1,7.0983887E-1,0E0,0E0,8.719957E1,3.6517334E-1,0E0,0E0,0E0,0E0],"parents":[2147483647,0,0,1,1,2,2,3,3,4,4,6,6,8,8,13,13,14,14,17,17,18,18],"right_children":[2,4,6,8,10,-1,12,-1,14,-1,-1,-1,-1,16,18,-1,-1,20,22,-1,-1,-1,-1],"split_conditions":[-3.4534708E-2,1E0,1E0,5.7701597E0,9.997E3,-5.435924E-2,9.997E3,-3.2590214E-2,-1.282133E-1,-6.300626E-2,4.8360337E-2,5.7818115E-2,5.3165972E-2,9.997E3,8.748306E1,5.5576224E-2,5.3351413E-2,1.7948661E3,2.1552685E6,5.0406333E-2,-2.5273502E-1,5.222205E-2,4.3890603E-2],"split_indices":[6,9,9,8,4,0,4,0,6,0,0,0,0,4,8,0,0,2,0,0,0,0,0],"split_type":[0,0,0,0,0,0,0,0,0,0,0,0,0,0,0,0,0,0,0,0,0,0,0],"sum_hessian":[9.17744E3,3.9086414E3,5.268799E3,3.867061E3,4.1580387E1,4.5481743E3,7.2062494E2,1.1536391E0,3.8659075E3,3.4877064E1,6.703322E0,5.0103717E2,2.1958775E2,3.3256948E3,5.402125E2,1.3713522E3,1.9543427E3,1.12354744E2,4.278578E2,1.1090899E2,1.4457568E0,3.6995642E2,5.7901382E1],"tree_param":{"num_deleted":"0","num_feature":"10","num_nodes":"23","size_leaf_vector":"1"}},{"base_weights":[8.999991E-3,1.0461198E0,-7.6882607E-1,1.0678941E0,-8.8572013E-1,-5.4128684E-2,5.613912E-2,-3.6384776E-2,1.0688201E0,-6.1964627E-2,4.7884967E-2,1.0815771E0,9.7961843E-1,5.528744E-2,5.3175073E-2,1.6961595E-2,9.845586E-1,4.3642744E-2,5.0473552E-2],"categories":[],"categories_nodes":[],"categories_segments":[],"categories_sizes":[],"default_left":[0,0,0,0,0,0,0,0,0,0,0,0,0,0,0,0,0,0,0],"id":42,"left_children":[1,3,5,7,9,-1,-1,-1,11,-1,-1,13,15,-1,-1,-1,17,-1,-1],"loss_changes":[7.131409E3,1.6031201E2,2.9992822E3,7.0078125E0,2.9065708E1,0E0,0E0,0E0,3.2026367E0,0E0,0E0,2.512207E-1,1.1820984E0,0E0,0E0,0E0,4.4076538E-1,0E0,0E0],"parents":[2147483647,0,0,1,1,2,2,3,3,4,4,8,8,11,11,12,12,16,16],"right_children":[2,4,6,8,10,-1,-1,-1,12,-1,-1,14,16,-1,-1,-1,18,-1,-1],"split_conditions":[-3.4534708E-2,1E0,1E0,5.7701597E0,9.997E3,-5.4128684E-2,5.613912E-2,-3.6384776E-2,-1.282133E-1,-6.1964627E-2,4.7884967E-2,9.997E3,2.5E2,5.528744E-2,5.3175073E-2,1.6961595E-2,7.5460106E1,4.3642744E-2,5.0473552E-2],"split_indices":[6,9,9,8,4,0,0,0,6,0,0,4,4,0,0,0,8,0,0],"split_type":[0,0,0,0,0,0,0,0,0,0,0,0,0,0,0,0,0,0,0],"sum_hessian":[8.83824E3,3.7876306E3,5.0506094E3,3.7458574E3,4.1773243E1,4.3324453E3,7.1816406E2,1.5263169E0,3.744331E3,3.5325455E1,6.4477873E0,3.2661128E3,4.7821823E2,1.371666E3,1.8944469E3,4.1942058E0,4.7402402E2,9.301139E1,3.8101263E2],"tree_param":{"num_deleted":"0","num_feature":"10","num_nodes":"19","size_leaf_vector":"1"}},{"base_weights":[2.2707027E-3,-3.1627485E-1,1.0557666E0,-4.2357528E-1,9.7778E-1,2.335016E-2,5.2812587E-2,-4.6286494E-1,3.293015E-1,9.9210656E-1,2.4658442E-1,-4.1256803E-1,-9.7730446E-1,-1.717882E-1,4.4377255E-1,6.532453E-1,4.9869787E-2,6.840616E-1,-4.168802E-2,-1.0277774E0,-3.5782966E-1,-5.3462755E-2,-6.3179463E-1,5.2565044E-1,-5.2927203E-2,5.2042283E-2,1.9067895E-1,5.023405E-2,-3.877637E-2,1.6682237E-2,4.4157103E-2,-5.314314E-2,-4.1404653E-2,2.5188839E-2,-1.9417841E-2,5.9957954E-4,-5.2741315E-2,-4.1007053E-2,3.50275E-2,-5.3062584E-2,2.1386437E-2],"categories":[],"categories_nodes":[],"categories_segments":[],"categories_sizes":[],"default_left":[0,0,0,0,0,0,0,0,0,0,0,0,0,0,0,0,0,0,0,0,0,0,0,0,0,0,0,0,0,0,0,0,0,0,0,0,0,0,0,0,0],"id":43,"left_children":[1,3,5,7,9,-1,-1,11,13,15,17,19,21,23,25,27,-1,29,-1,31,33,-1,35,37,-1,-1,39,-1,-1,-1,-1,-1,-1,-1,-1,-1,-1,-1,-1,-1,-1],"loss_changes":[2.8193315E3,8.961128E2,6.37207E-2,1.7637671E2,4.932678E0,0E0,0E0,1.4611023E2,1.7058437E1,2.1658325E-1,5.688048E0,1.7339294E2,1.5323151E1,3.5052338E1,3.6263393E1,5.972442E0,0E0,2.8133082E-1,0E0,2.0697632E0,1.248634E2,0E0,2.9505283E1,8.080681E0,0E0,0E0,5.1106304E1,0E0,0E0,0E0,0E0,0E0,0E0,0E0,0E0,0E0,0E0,0E0,0E0,0E0,0E0],"parents":[2147483647,0,0,1,1,2,2,3,3,4,4,7,7,8,8,9,9,10,10,11,11,12,12,13,13,14,14,15,15,17,17,19,19,20,20,22,22,23,23,26,26],"right_children":[2,4,6,8,10,-1,-1,12,14,16,18,20,22,24,26,28,-1,30,-1,32,34,-1,36,38,-1,-1,40,-1,-1,-1,-1,-1,-1,-1,-1,-1,-1,-1,-1,-1,-1],"split_conditions":[9.997E3,1E0,7.288329E0,2.2068875E5,3.3635547E5,2.335016E-2,5.2812587E-2,3.9448175E6,5.5788415E6,2.5262619E2,2.933E3,9.03173E0,1.6260414E5,4.778283E6,5.503318E6,7.940519E0,4.9869787E-2,2.857E3,-4.168802E-2,7.621967E0,2.9439557E2,-5.3462755E-2,5.7902585E6,3.7898105E6,-5.2927203E-2,5.2042283E-2,6.7040085E6,5.023405E-2,-3.877637E-2,1.6682237E-2,4.4157103E-2,-5.314314E-2,-4.1404653E-2,2.5188839E-2,-1.9417841E-2,5.9957954E-4,-5.2741315E-2,-4.1007053E-2,3.50275E-2,-5.3062584E-2,2.1386437E-2],"split_indices":[4,9,8,8,8,0,0,0,3,3,4,8,8,1,2,8,0,4,0,8,0,0,1,3,0,0,3,0,0,0,0,0,0,0,0,0,0,0,0,0,0],"split_type":[0,0,0,0,0,0,0,0,0,0,0,0,0,0,0,0,0,0,0,0,0,0,0,0,0,0,0,0,0,0,0,0,0,0,0,0,0,0,0,0,0],"sum_hessian":[8.399214E3,6.4497134E3,1.9495001E3,5.9564863E3,4.9322723E2,2.398733E0,1.9471013E3,5.661424E3,2.950622E2,4.83399E2,9.82823E0,5.158844E3,5.0257974E2,5.4777317E1,2.402849E2,9.342678E0,4.7405634E2,7.256556E0,2.5716736E0,4.2005328E2,4.738791E3,3.9528708E2,1.0729266E2,3.0889647E1,2.3887669E1,7.060594E1,1.6967896E2,7.736541E0,1.6061372E0,3.5984962E0,3.6580598E0,3.5360144E2,6.6451836E1,1.616221E2,4.577169E3,4.29307E1,6.436197E1,3.1284094E0,2.7761238E1,2.6459822E1,1.4321913E2],"tree_param":{"num_deleted":"0","num_feature":"10","num_nodes":"41","size_leaf_vector":"1"}},{"base_weights":[9.914509E-3,-2.913754E-1,5.2586187E-2,-3.9837024E-1,9.675268E-1,-1.0380497E0,-3.5562843E-1,9.814145E-1,3.9774665E-1,-5.2967902E-2,-7.9255384E-1,8.9869544E-2,-4.071056E-1,5.754249E-1,4.924251E-2,6.9048977E-1,-3.985201E-2,6.178605E-2,-5.1199492E-2,-3.132388E-1,5.616804E-1,-9.2782557E-1,-3.356798E-1,4.7148805E-2,-3.1164715E-2,3.421595E-1,4.5769732E-2,-4.011215E-2,3.5993576E-2,2.4776097E-2,-4.7622498E-2,-5.0763305E-2,3.2069065E-2,-2.2419006E-2,-5.015975E-2,2.7551142E-2,-2.099561E-2,-3.5056245E-2,4.0548E-2],"categories":[],"categories_nodes":[],"categories_segments":[],"categories_sizes":[],"default_left":[0,0,0,0,0,0,0,0,0,0,0,0,0,0,0,0,0,0,0,0,0,0,0,0,0,0,0,0,0,0,0,0,0,0,0,0,0,0,0],"id":44,"left_children":[1,3,-1,5,7,9,11,13,15,-1,17,19,21,23,-1,25,-1,27,-1,29,31,33,35,-1,-1,37,-1,-1,-1,-1,-1,-1,-1,-1,-1,-1,-1,-1,-1],"loss_changes":[2.5907798E3,8.6275714E2,0E0,1.6098547E2,3.5804138E0,1.0912781E0,1.2693469E2,1.1566162E-1,5.3146424E0,0E0,6.677046E0,1.0934133E2,1.8418213E2,3.4561968E0,0E0,5.8587503E-1,0E0,5.167813E0,0E0,1.6081842E2,3.3933723E1,2.1151001E1,3.261511E2,0E0,0E0,3.5518677E0,0E0,0E0,0E0,0E0,0E0,0E0,0E0,0E0,0E0,0E0,0E0,0E0,0E0],"parents":[2147483647,0,0,1,1,3,3,4,4,5,5,6,6,7,7,8,8,10,10,11,11,12,12,13,13,15,15,17,17,19,19,20,20,21,21,22,22,25,25],"right_children":[2,4,-1,6,8,10,12,14,16,-1,18,20,22,24,-1,26,-1,28,-1,30,32,34,36,-1,-1,38,-1,-1,-1,-1,-1,-1,-1,-1,-1,-1,-1,-1,-1],"split_conditions":[9.322065E-1,1E0,5.2586187E-2,8.266118E0,2.7462328E5,7.621967E0,7.23411E2,-1.0380152E0,2.2491567E-1,-5.2967902E-2,3.23721E0,1.9206038E1,4.8371037E1,-1.0941364E0,4.924251E-2,7.053487E6,-3.985201E-2,3.0246294E0,-5.1199492E-2,2.9759177E2,2.9624988E2,8.028754E2,2.0756948E3,4.7148805E-2,-3.1164715E-2,1.6583772E5,4.5769732E-2,-4.011215E-2,3.5993576E-2,2.4776097E-2,-4.7622498E-2,-5.0763305E-2,3.2069065E-2,-2.2419006E-2,-5.015975E-2,2.7551142E-2,-2.099561E-2,-3.5056245E-2,4.0548E-2],"split_indices":[5,9,0,8,8,8,1,5,5,0,7,8,8,5,0,3,0,7,0,1,3,0,2,0,0,7,0,0,0,0,0,0,0,0,0,0,0,0,0],"split_type":[0,0,0,0,0,0,0,0,0,0,0,0,0,0,0,0,0,0,0,0,0,0,0,0,0,0,0,0,0,0,0,0,0,0,0,0,0,0,0],"sum_hessian":[8.2518955E3,6.401353E3,1.8505428E3,5.9005454E3,5.0080734E2,3.6810812E2,5.5324375E3,4.8818594E2,1.262139E1,3.3565875E2,3.2449383E1,5.72978E2,4.9594595E3,5.5104547E0,4.8267548E2,1.0476541E1,2.1448498E0,7.0729184E0,2.5376465E1,3.0916663E2,2.638114E2,5.9677356E2,4.3626855E3,4.380617E0,1.1298375E0,5.099633E0,5.3769073E0,2.963264E0,4.1096544E0,1.3658168E2,1.7258495E2,1.2127163E1,2.5168422E2,8.201331E1,5.1476025E2,3.779992E2,3.9846865E3,1.4274241E0,3.672209E0],"tree_param":{"num_deleted":"0","num_feature":"10","num_nodes":"39","size_leaf_vector":"1"}},{"base_weights":[8.392502E-3,1.0392377E0,-7.909207E-1,1.0625393E0,-1.0715492E0,-5.3733498E-2,5.529313E-2,-2.9501662E-2,1.0631863E0,-6.210305E-2,4.0359575E-2,1.0757881E0,9.883564E-1,5.5105556E-2,5.270179E-2,8.638726E-1,1.0205408E0,4.929743E-2,-2.1766031E-1,5.1854588E-2,3.891431E-2],"categories":[],"categories_nodes":[],"categories_segments":[],"categories_sizes":[],"default_left":[0,0,0,0,0,0,0,0,0,0,0,0,0,0,0,0,0,0,0,0,0],"id":45,"left_children":[1,3,5,7,9,-1,-1,-1,11,-1,-1,13,15,-1,-1,17,19,-1,-1,-1,-1],"loss_changes":[6.635237E3,1.7412256E2,2.4423909E3,4.3466797E0,1.34639015E1,0E0,0E0,0E0,2.2163086E0,0E0,0E0,5.366211E-1,1.1761475E0,0E0,0E0,7.563928E1,8.070679E-1,0E0,0E0,0E0,0E0],"parents":[2147483647,0,0,1,1,2,2,3,3,4,4,8,8,11,11,12,12,15,15,16,16],"right_children":[2,4,6,8,10,-1,-1,-1,12,-1,-1,14,16,-1,-1,18,20,-1,-1,-1,-1],"split_conditions":[-3.4534708E-2,1E0,1E0,5.7701597E0,9.997E3,-5.3733498E-2,5.529313E-2,-2.9501662E-2,-1.282133E-1,-6.210305E-2,4.0359575E-2,9.997E3,8.748306E1,5.5105556E-2,5.270179E-2,1.7948661E3,8.783603E4,4.929743E-2,-2.1766031E-1,5.1854588E-2,3.891431E-2],"split_indices":[6,9,9,8,4,0,0,0,6,0,0,4,8,0,0,2,7,0,0,0,0],"split_type":[0,0,0,0,0,0,0,0,0,0,0,0,0,0,0,0,0,0,0,0,0],"sum_hessian":[8.0507856E3,3.5160122E3,4.5347734E3,3.4781128E3,3.789938E1,3.9450476E3,5.897259E2,1.0045365E0,3.4771082E3,3.505658E1,2.8427987E0,2.9644927E3,5.1261566E2,1.3188563E3,1.6456362E3,1.1102625E2,4.015894E2,1.0928019E2,1.7460635E0,3.7283606E2,2.8753313E1],"tree_param":{"num_deleted":"0","num_feature":"10","num_nodes":"21","size_leaf_vector":"1"}},{"base_weights":[1.6198757E-3,-2.9917228E-1,1.0465971E0,-4.0262613E-1,9.4350266E-1,2.0905858E-2,5.2357715E-2,-5.1688638E-2,-3.5813504E-1,9.560554E-1,2.6495707E-1,2.1835652E-1,-3.9577118E-1,6.734403E-1,9.654651E-1,3.8095158E-2,-4.080999E-2,6.100003E-2,7.9638207E-1,-1.0440934E0,-3.4113637E-1,5.2164275E-2,-4.7176313E-2,9.701143E-1,4.740279E-1,2.3765033E-2,-3.0428538E-2,-4.6183143E-2,4.928551E-2,-5.3900737E-2,-4.48036E-2,1.2647809E-2,-2.1530062E-2,5.31585E-2,4.6987668E-2,-3.2681428E-2,4.1965235E-2],"categories":[],"categories_nodes":[],"categories_segments":[],"categories_sizes":[],"default_left":[0,0,0,0,0,0,0,0,0,0,0,0,0,0,0,0,0,0,0,0,0,0,0,0,0,0,0,0,0,0,0,0,0,0,0,0,0],"id":46,"left_children":[1,3,5,7,9,-1,-1,-1,11,13,15,17,19,21,23,-1,-1,25,27,29,31,-1,-1,33,35,-1,-1,-1,-1,-1,-1,-1,-1,-1,-1,-1,-1],"loss_changes":[2.4081677E3,7.651908E2,1.616211E-1,1.5386346E2,3.6435242E0,0E0,0E0,0E0,1.1144403E2,5.4333496E-1,5.829796E0,2.8618866E1,1.7031042E2,1.1609988E1,5.2731323E-1,0E0,0E0,6.9312874E1,2.2846046E1,9.1192627E-1,2.3637555E2,0E0,0E0,2.0733643E-1,3.021896E0,0E0,0E0,0E0,0E0,0E0,0E0,0E0,0E0,0E0,0E0,0E0,0E0],"parents":[2147483647,0,0,1,1,2,2,3,3,4,4,8,8,9,9,10,10,11,11,12,12,13,13,14,14,17,17,18,18,19,19,20,20,23,23,24,24],"right_children":[2,4,6,8,10,-1,-1,-1,12,14,16,18,20,22,24,-1,-1,26,28,30,32,-1,-1,34,36,-1,-1,-1,-1,-1,-1,-1,-1,-1,-1,-1,-1],"split_conditions":[9.322065E-1,1E0,7.288329E0,9.03173E0,3.3635547E5,2.0905858E-2,5.2357715E-2,-5.1688638E-2,4.8502966E2,2.8354913E2,-5.252913E-1,4.5581854E2,2.957741E1,8.266118E0,8.767044E-1,3.8095158E-2,-4.080999E-2,2.9439557E2,1.6038778E1,2.4569107E1,2.0756948E3,5.2164275E-2,-4.7176313E-2,4.8371037E1,9.2436606E-1,2.3765033E-2,-3.0428538E-2,-4.6183143E-2,4.928551E-2,-5.3900737E-2,-4.48036E-2,1.2647809E-2,-2.1530062E-2,5.31585E-2,4.6987668E-2,-3.2681428E-2,4.1965235E-2],"split_indices":[5,9,8,8,8,0,0,0,0,3,5,3,8,8,5,0,0,0,8,8,2,0,0,8,5,0,0,0,0,0,0,0,0,0,0,0,0],"split_type":[0,0,0,0,0,0,0,0,0,0,0,0,0,0,0,0,0,0,0,0,0,0,0,0,0,0,0,0,0,0,0,0,0,0,0,0,0],"sum_hessian":[7.659496E3,5.9480806E3,1.7114153E3,5.4915776E3,4.5650296E2,2.1812103E0,1.7092341E3,3.6015903E2,5.1314185E3,4.4780975E2,8.6932E0,3.1417902E2,4.8172397E3,1.6767784E1,4.3104196E2,6.1580057E0,2.5351949E0,2.478202E2,6.635881E1,3.7299503E2,4.4442446E3,1.3935204E1,2.83258E0,4.2603745E2,5.0045204E0,1.5327228E2,9.454792E1,6.1953588E0,6.0163456E1,2.9834244E2,7.4652565E1,5.8142926E2,3.8628154E3,9.643828E1,3.2959918E2,1.0313143E0,3.973206E0],"tree_param":{"num_deleted":"0","num_feature":"10","num_nodes":"37","size_leaf_vector":"1"}},{"base_weights":[1.487693E-3,1.0330307E0,-7.962962E-1,1.0578282E0,-1.0788884E0,-5.3456634E-2,5.4624002E-2,-4.3941543E-2,1.058775E0,-6.187872E-2,3.9234247E-2,1.0719918E0,9.799907E-1,5.488336E-2,5.242167E-2,2.6352093E-2,4.9141508E-2],"categories":[],"categories_nodes":[],"categories_segments":[],"categories_sizes":[],"default_left":[0,0,0,0,0,0,0,0,0,0,0,0,0,0,0,0,0],"id":47,"left_children":[1,3,5,7,9,-1,-1,-1,11,-1,-1,13,15,-1,-1,-1,-1],"loss_changes":[6.1729014E3,1.7245581E2,2.1808645E3,6.8605957E0,1.2344261E1,0E0,0E0,0E0,2.3154297E0,0E0,0E0,5.1708984E-1,9.420776E-2,0E0,0E0,0E0,0E0],"parents":[2147483647,0,0,1,1,2,2,3,3,4,4,8,8,11,11,12,12],"right_children":[2,4,6,8,10,-1,-1,-1,12,-1,-1,14,16,-1,-1,-1,-1],"split_conditions":[-3.4534708E-2,1E0,1E0,6.988849E0,9.997E3,-5.3456634E-2,5.4624002E-2,-4.3941543E-2,-1.282133E-1,-6.187872E-2,3.9234247E-2,9.997E3,2.5E2,5.488336E-2,5.242167E-2,2.6352093E-2,4.9141508E-2],"split_indices":[6,9,9,8,4,0,0,0,6,0,0,4,4,0,0,0,0],"split_type":[0,0,0,0,0,0,0,0,0,0,0,0,0,0,0,0,0],"sum_hessian":[7.4989585E3,3.2702263E3,4.2287324E3,3.2327673E3,3.745881E1,3.6953652E3,5.3336707E2,1.1267155E0,3.2316406E3,3.4828983E1,2.6298254E0,2.7565898E3,4.7505087E2,1.2972142E3,1.4593755E3,4.1220536E0,4.7092883E2],"tree_param":{"num_deleted":"0","num_feature":"10","num_nodes":"17","size_leaf_vector":"1"}},{"base_weights":[1.5529535E-2,1.0270767E0,-7.838598E-1,1.0529072E0,-1.0746152E0,-5.3279113E-2,5.4461118E-2,-2.9532045E-2,1.0536369E0,-6.119136E-2,3.8756687E-2,1.0680468E0,9.70674E-1,5.464227E-2,5.230075E-2,8.42082E-1,1.0019169E0,4.7909167E-2,-1.8333726E-1,5.0322462E-2,1.7105741E-2],"categories":[],"categories_nodes":[],"categories_segments":[],"categories_sizes":[],"default_left":[0,0,0,0,0,0,0,0,0,0,0,0,0,0,0,0,0,0,0,0,0],"id":48,"left_children":[1,3,5,7,9,-1,-1,-1,11,-1,-1,13,15,-1,-1,17,19,-1,-1,-1,-1],"loss_changes":[5.850588E3,1.7451636E2,2.1338E3,4.4069824E0,1.178772E1,0E0,0E0,0E0,2.734375E0,0E0,0E0,3.2006836E-1,1.0758362E0,0E0,0E0,5.568474E1,7.893982E-1,0E0,0E0,0E0,0E0],"parents":[2147483647,0,0,1,1,2,2,3,3,4,4,8,8,11,11,12,12,15,15,16,16],"right_children":[2,4,6,8,10,-1,-1,-1,12,-1,-1,14,16,-1,-1,18,20,-1,-1,-1,-1],"split_conditions":[-3.4534708E-2,1E0,1E0,5.7701597E0,9.959E3,-5.3279113E-2,5.4461118E-2,-2.9532045E-2,-1.282133E-1,-6.119136E-2,3.8756687E-2,9.997E3,8.748306E1,5.464227E-2,5.230075E-2,1.7948661E3,2.0731852E5,4.7909167E-2,-1.8333726E-1,5.0322462E-2,1.7105741E-2],"split_indices":[6,9,9,8,4,0,0,0,6,0,0,4,8,0,0,2,7,0,0,0,0],"split_type":[0,0,0,0,0,0,0,0,0,0,0,0,0,0,0,0,0,0,0,0,0],"sum_hessian":[7.2332793E3,3.1928113E3,4.040468E3,3.15454E3,3.8271385E1,3.5125857E3,5.2788226E2,1.0412301E0,3.1534988E3,3.572775E1,2.5436347E0,2.6767078E3,4.7679105E2,1.2364133E3,1.4402943E3,9.866236E1,3.781287E2,9.695332E1,1.7090392E0,3.7502722E2,3.101489E0],"tree_param":{"num_deleted":"0","num_feature":"10","num_nodes":"21","size_leaf_vector":"1"}},{"base_weights":[-7.63047E-3,1.0203212E0,-7.7967757E-1,1.0451515E0,-9.0483576E-1,-5.310574E-2,5.42587E-2,1.064041E0,9.360684E-1,-6.0189217E-2,4.474906E-2,5.437545E-2,5.2173793E-2,9.4948334E-1,5.794725E-1,2.3097089E-2,9.5274246E-1,-1.6833071E-1,4.5586467E-2,4.530224E-2,5.0267834E-2,2.7039323E-2,-4.3315858E-2],"categories":[],"categories_nodes":[],"categories_segments":[],"categories_sizes":[],"default_left":[0,0,0,0,0,0,0,0,0,0,0,0,0,0,0,0,0,0,0,0,0,0,0],"id":49,"left_children":[1,3,5,7,9,-1,-1,11,13,-1,-1,-1,-1,15,17,-1,19,21,-1,-1,-1,-1,-1],"loss_changes":[5.3778115E3,1.3987915E2,2.0393923E3,4.9177246E0,2.127865E1,0E0,0E0,4.248047E-2,1.5160217E0,0E0,0E0,0E0,0E0,2.1881104E-1,4.6819263E0,0E0,9.893799E-2,3.6614137E0,0E0,0E0,0E0,0E0,0E0],"parents":[2147483647,0,0,1,1,2,2,3,3,4,4,7,7,8,8,13,13,14,14,16,16,17,17],"right_children":[2,4,6,8,10,-1,-1,12,14,-1,-1,-1,-1,16,18,-1,20,22,-1,-1,-1,-1,-1],"split_conditions":[-3.4534708E-2,1E0,1E0,-1.282133E-1,9.997E3,-5.310574E-2,5.42587E-2,9.997E3,8.783603E4,-6.0189217E-2,4.474906E-2,5.437545E-2,5.2173793E-2,2.94E2,6.939958E6,2.3097089E-2,7.224802E4,5.190033E6,4.5586467E-2,4.530224E-2,5.0267834E-2,2.7039323E-2,-4.3315858E-2],"split_indices":[6,9,9,6,4,0,0,4,7,0,0,0,0,4,3,0,3,0,0,0,0,0,0],"split_type":[0,0,0,0,0,0,0,0,0,0,0,0,0,0,0,0,0,0,0,0,0,0,0],"sum_hessian":[6.774242E3,2.9054385E3,3.8688037E3,2.8688933E3,3.654519E1,3.360306E3,5.0849783E2,2.4379648E3,4.309286E2,3.1623676E1,4.921512E0,1.1143856E3,1.3235791E3,4.137027E2,1.722589E1,3.694989E0,4.1000772E2,5.4509425E0,1.1774947E1,2.2686986E2,1.8313786E2,2.8156307E0,2.635312E0],"tree_param":{"num_deleted":"0","num_feature":"10","num_nodes":"23","size_leaf_vector":"1"}},{"base_weights":[8.113661E-4,-2.9024062E-1,5.1725566E-2,-3.9122212E-1,9.188563E-1,-9.411897E-1,-3.4612706E-1,9.304736E-1,2.681662E-1,-5.2012432E-2,-6.889742E-1,-3.7941444E-1,3.422214E-1,2.351194E-2,9.347085E-1,3.588801E-2,-3.7220072E-2,3.6477953E-1,-5.2076813E-2,-3.1176713E-1,-8.9487314E-1,4.7095734E-1,-1.9441667E-1,2.2054581E-2,4.690782E-2,3.0629927E-2,-1.4940339E-2,-1.7752066E-2,2.5144434E-2,-5.1387038E-2,-1.9248387E-2,-6.175535E-3,2.8621543E-2,-4.244179E-2,2.7701741E-2],"categories":[],"categories_nodes":[],"categories_segments":[],"categories_sizes":[],"default_left":[0,0,0,0,0,0,0,0,0,0,0,0,0,0,0,0,0,0,0,0,0,0,0,0,0,0,0,0,0,0,0,0,0,0,0],"id":50,"left_children":[1,3,-1,5,7,9,11,13,15,-1,17,19,21,-1,23,-1,-1,25,-1,27,29,31,33,-1,-1,-1,-1,-1,-1,-1,-1,-1,-1,-1,-1],"loss_changes":[1.9573223E3,6.20172E2,0E0,1.158866E2,2.7106018E0,8.140686E0,9.939734E1,3.095398E-1,4.30083E0,0E0,3.862186E1,1.4383423E2,1.3933701E1,0E0,2.3257446E-1,0E0,0E0,4.548593E0,0E0,1.2903061E2,3.2052246E1,9.836399E0,1.9804802E1,0E0,0E0,0E0,0E0,0E0,0E0,0E0,0E0,0E0,0E0,0E0,0E0],"parents":[2147483647,0,0,1,1,3,3,4,4,5,5,6,6,7,7,8,8,10,10,11,11,12,12,14,14,17,17,19,19,20,20,21,21,22,22],"right_children":[2,4,-1,6,8,10,12,14,16,-1,18,20,22,-1,24,-1,-1,26,-1,28,30,32,34,-1,-1,-1,-1,-1,-1,-1,-1,-1,-1,-1,-1],"split_conditions":[9.997E3,1E0,5.1725566E-2,1.0301229E1,3.3635547E5,7.621967E0,2.377931E5,4.48E2,2.933E3,-5.2012432E-2,2.3582397E2,2.3672652E6,4.9759062E5,2.351194E-2,3.23721E0,3.588801E-2,-3.7220072E-2,4.321568E0,-5.2076813E-2,5.832452E4,1.6992773E5,5.476025E6,8.111561E6,2.2054581E-2,4.690782E-2,3.0629927E-2,-1.4940339E-2,-1.7752066E-2,2.5144434E-2,-5.1387038E-2,-1.9248387E-2,-6.175535E-3,2.8621543E-2,-4.244179E-2,2.7701741E-2],"split_indices":[4,9,0,8,8,8,8,4,4,0,0,1,8,0,7,0,0,7,0,8,8,3,3,0,0,0,0,0,0,0,0,0,0,0,0],"split_type":[0,0,0,0,0,0,0,0,0,0,0,0,0,0,0,0,0,0,0,0,0,0,0,0,0,0,0,0,0,0,0,0,0,0,0],"sum_hessian":[6.503751E3,5.0754185E3,1.4283324E3,4.684827E3,3.9059152E2,3.5351978E2,4.331307E3,3.833179E2,7.2736425E0,2.5158429E2,1.01935486E2,4.1319424E3,1.9936499E2,4.516524E0,3.7880136E2,5.238725E0,2.0349174E0,2.5546444E1,7.638904E1,3.6540059E3,4.7793643E2,1.6089075E2,3.847424E1,3.5218506E0,3.752795E2,1.8656088E1,6.890356E0,3.4702327E3,1.8377327E2,3.7833655E2,9.9599884E1,2.3427412E1,1.3746333E2,2.0455E1,1.801924E1],"tree_param":{"num_deleted":"0","num_feature":"10","num_nodes":"35","size_leaf_vector":"1"}},{"base_weights":[-4.0517247E-4,1.0154824E0,-7.7063304E-1,1.04083E0,-1.0454681E0,-5.2887566E-2,5.3824093E-2,-4.4309314E-2,1.0420209E0,-5.9861522E-2,3.7101272E-2,5.301071E-2,9.461284E-1,8.394748E-1,9.7032464E-1,4.7333993E-2,-1.5767683E-1,4.9582098E-2,3.9898723E-2],"categories":[],"categories_nodes":[],"categories_segments":[],"categories_sizes":[],"default_left":[0,0,0,0,0,0,0,0,0,0,0,0,0,0,0,0,0,0,0],"id":51,"left_children":[1,3,5,7,9,-1,-1,-1,11,-1,-1,-1,13,15,17,-1,-1,-1,-1],"loss_changes":[4.9763994E3,1.4436133E2,1.9195481E3,7.14209E0,1.0062908E1,0E0,0E0,0E0,3.722412E0,0E0,0E0,0E0,3.2409668E-1,4.108584E1,5.064087E-1,0E0,0E0,0E0,0E0],"parents":[2147483647,0,0,1,1,2,2,3,3,4,4,8,8,12,12,13,13,14,14],"right_children":[2,4,6,8,10,-1,-1,-1,12,-1,-1,-1,14,16,18,-1,-1,-1,-1],"split_conditions":[-3.4534708E-2,1E0,1E0,6.988849E0,9.959E3,-5.2887566E-2,5.3824093E-2,-4.4309314E-2,-1.282133E-1,-5.9861522E-2,3.7101272E-2,5.301071E-2,8.748306E1,1.8125391E3,2.343786E6,4.7333993E-2,-1.5767683E-1,4.9582098E-2,3.9898723E-2],"split_indices":[6,9,9,8,4,0,0,0,6,0,0,0,8,0,0,0,0,0,0],"split_type":[0,0,0,0,0,0,0,0,0,0,0,0,0,0,0,0,0,0,0],"sum_hessian":[6.357901E3,2.741585E3,3.6163162E3,2.708765E3,3.2820118E1,3.130183E3,4.8613306E2,1.2139986E0,2.7075508E3,3.0556055E1,2.2640631E0,2.267326E3,4.4022488E2,8.800502E1,3.5221985E2,8.644699E1,1.5580266E0,3.092201E2,4.2999767E1],"tree_param":{"num_deleted":"0","num_feature":"10","num_nodes":"19","size_leaf_vector":"1"}},{"base_weights":[2.9008475E-3,1.0096197E0,-7.8983474E-1,1.035559E0,-9.162017E-1,-5.2740276E-2,5.3572923E-2,-4.3810356E-2,1.0367812E0,-5.938452E-2,4.3450188E-2,5.287669E-2,9.178009E-1,1.9463536E-1,9.3406796E-1,4.6470422E-2,-4.8081867E-2,4.728814E-2,2.4506388E-2],"categories":[],"categories_nodes":[],"categories_segments":[],"categories_sizes":[],"default_left":[0,0,0,0,0,0,0,0,0,0,0,0,0,0,0,0,0,0,0],"id":52,"left_children":[1,3,5,7,9,-1,-1,-1,11,-1,-1,-1,13,15,17,-1,-1,-1,-1],"loss_changes":[4.89094E3,1.3581934E2,1.6921011E3,7.134033E0,1.8679874E1,0E0,0E0,0E0,5.6052246E0,0E0,0E0,0E0,4.56015E0,9.5011425E0,1.5818481E0,0E0,0E0,0E0,0E0],"parents":[2147483647,0,0,1,1,2,2,3,3,4,4,8,8,12,12,13,13,14,14],"right_children":[2,4,6,8,10,-1,-1,-1,12,-1,-1,-1,14,16,18,-1,-1,-1,-1],"split_conditions":[-3.4534708E-2,1E0,1E0,6.988849E0,9.997E3,-5.2740276E-2,5.3572923E-2,-4.3810356E-2,-1.282133E-1,-5.938452E-2,4.3450188E-2,5.287669E-2,1.5469277E1,5.162065E0,1.1344261E5,4.6470422E-2,-4.8081867E-2,4.728814E-2,2.4506388E-2],"split_indices":[6,9,9,8,4,0,0,0,6,0,0,0,8,7,7,0,0,0,0],"split_type":[0,0,0,0,0,0,0,0,0,0,0,0,0,0,0,0,0,0,0],"sum_hessian":[6.1265234E3,2.6988716E3,3.4276519E3,2.6634592E3,3.5412457E1,3.0008843E3,4.2676776E2,1.2442795E0,2.6622148E3,3.1028448E1,4.3840075E0,2.2601165E3,4.0209848E2,9.13113E0,3.9296735E2,5.703162E0,3.427968E0,3.817797E2,1.1187654E1],"tree_param":{"num_deleted":"0","num_feature":"10","num_nodes":"19","size_leaf_vector":"1"}},{"base_weights":[3.2415166E-3,1.0092244E0,-7.742485E-1,-4.3583717E-2,1.0104926E0,-8.4016937E-1,9.629082E-1,5.1455587E-2,9.105929E-1,-8.429417E-1,-1.7850149E-1,7.978839E-1,5.1168885E-2,4.1449654E-1,9.186828E-1,-8.2512975E-1,-9.5091105E-1,4.4720493E-2,-4.719073E-2,5.9582E-1,9.3758637E-1,4.258717E-2,-1.960257E-3,9.232351E-1,1.0671947E-2,-8.4349585E-1,-5.120978E-1,-1.0042984E0,-8.076636E-1,7.575571E-1,-3.9210986E-2,1.4318491E-2,4.8991557E-2,3.462309E-2,4.652394E-2,-4.0693518E-2,-4.6623673E-2,-1.7351722E-2,-4.2555705E-2,-4.354581E-2,-5.1818628E-2,-7.3970356E-3,-4.550029E-2,1.0668457E-2,4.0539965E-2],"categories":[],"categories_nodes":[],"categories_segments":[],"categories_sizes":[],"default_left":[0,0,0,0,0,0,0,0,0,0,0,0,0,0,0,0,0,0,0,0,0,0,0,0,0,0,0,0,0,0,0,0,0,0,0,0,0,0,0,0,0,0,0,0,0],"id":53,"left_children":[1,3,5,-1,7,9,11,-1,13,15,17,19,-1,21,23,25,27,-1,-1,29,31,-1,-1,33,-1,35,37,39,41,43,-1,-1,-1,-1,-1,-1,-1,-1,-1,-1,-1,-1,-1,-1,-1],"loss_changes":[4.5605806E3,6.944336E0,3.774442E2,0E0,3.7885742E0,5.663086E0,3.88031E-1,0E0,1.2559509E0,5.284424E0,1.2743994E1,4.832611E-1,0E0,1.6929889E0,1.0885925E0,1.5185303E1,2.5563354E0,0E0,0E0,4.5739074E0,2.717743E-1,0E0,0E0,2.029419E-2,0E0,6.0007324E0,8.271423E0,4.5217896E-1,8.282028E0,3.041582E-1,0E0,0E0,0E0,0E0,0E0,0E0,0E0,0E0,0E0,0E0,0E0,0E0,0E0,0E0,0E0],"parents":[2147483647,0,0,1,1,2,2,4,4,5,5,6,6,8,8,9,9,10,10,11,11,13,13,14,14,15,15,16,16,19,19,20,20,23,23,25,25,26,26,27,27,28,28,29,29],"right_children":[2,4,6,-1,8,10,12,-1,14,16,18,20,-1,22,24,26,28,-1,-1,30,32,-1,-1,34,-1,36,38,40,42,44,-1,-1,-1,-1,-1,-1,-1,-1,-1,-1,-1,-1,-1,-1,-1],"split_conditions":[-3.4534708E-2,6.988849E0,9.997E3,-4.3583717E-2,-1.282133E-1,8.345457E6,1.9925E4,5.1455587E-2,5.27E2,5.062308E4,8.2638145E6,2.1186572E3,5.1168885E-2,1.42E2,2.0731852E5,3.9488977E4,1.6992773E5,4.4720493E-2,-4.719073E-2,1.4416668E4,-1.2883461E-2,4.258717E-2,-1.960257E-3,1.4928949E1,1.0671947E-2,1.6703455E3,2.252216E6,3.9448175E6,1.7829547E5,3.3782294E2,-3.9210986E-2,1.4318491E-2,4.8991557E-2,3.462309E-2,4.652394E-2,-4.0693518E-2,-4.6623673E-2,-1.7351722E-2,-4.2555705E-2,-4.354581E-2,-5.1818628E-2,-7.3970356E-3,-4.550029E-2,1.0668457E-2,4.0539965E-2],"split_indices":[6,8,4,0,6,3,4,0,4,7,0,8,0,4,7,8,8,0,0,0,6,0,0,8,0,7,2,0,8,0,0,0,0,0,0,0,0,0,0,0,0,0,0,0,0],"split_type":[0,0,0,0,0,0,0,0,0,0,0,0,0,0,0,0,0,0,0,0,0,0,0,0,0,0,0,0,0,0,0,0,0,0,0,0,0,0,0,0,0,0,0,0,0],"sum_hessian":[5.828889E3,2.5409253E3,3.2879636E3,1.2496747E0,2.5396755E3,3.1682527E3,1.1971108E2,2.1328557E3,4.0681995E2,3.1547603E3,1.3492323E1,3.590886E1,8.380222E1,7.3657613E0,3.9945416E2,2.7154314E3,4.3932883E2,5.5470676E0,7.9452558E0,1.6830435E1,1.9078424E1,3.3041377E0,4.0616236E0,3.9658514E2,2.8690329E0,2.5633416E3,1.5209001E2,3.1566983E2,1.23659E2,1.5468615E1,1.3618202E0,1.6361105E0,1.7442314E1,1.5009105E1,3.8157605E2,1.9306642E3,6.326773E2,1.0364839E2,4.844163E1,6.665089E1,2.4901894E2,1.6935318E1,1.0672368E2,1.824807E0,1.3643807E1],"tree_param":{"num_deleted":"0","num_feature":"10","num_nodes":"45","size_leaf_vector":"1"}},{"base_weights":[-1.6585067E-3,1.0024029E0,-7.5965685E-1,1.0288775E0,-9.0886164E-1,-5.2489378E-2,5.353545E-2,5.2602332E-2,9.0769774E-1,-5.9008162E-2,4.251499E-2,-4.2780645E-2,9.153934E-1,6.940365E-1,9.4651777E-1,4.6927493E-2,-2.1019287E-1,5.039974E-2,4.37595E-2],"categories":[],"categories_nodes":[],"categories_segments":[],"categories_sizes":[],"default_left":[0,0,0,0,0,0,0,0,0,0,0,0,0,0,0,0,0,0,0],"id":54,"left_children":[1,3,5,7,9,-1,-1,-1,11,-1,-1,-1,13,15,17,-1,-1,-1,-1],"loss_changes":[4.2456177E3,1.2236011E2,1.6891663E3,5.6918945E0,1.6904629E1,0E0,0E0,0E0,6.038452E0,0E0,0E0,0E0,2.0029907E0,6.543242E1,5.9002686E-1,0E0,0E0,0E0,0E0],"parents":[2147483647,0,0,1,1,2,2,3,3,4,4,8,8,12,12,13,13,14,14],"right_children":[2,4,6,8,10,-1,-1,-1,12,-1,-1,-1,14,16,18,-1,-1,-1,-1],"split_conditions":[-3.4534708E-2,1E0,1E0,-1.282133E-1,9.924E3,-5.2489378E-2,5.353545E-2,5.2602332E-2,6.988849E0,-5.9008162E-2,4.251499E-2,-4.2780645E-2,4.1805725E1,7.1609735E2,1.0390604E3,4.6927493E-2,-2.1019287E-1,5.039974E-2,4.37595E-2],"split_indices":[6,9,9,6,4,0,0,0,8,0,0,0,8,0,7,0,0,0,0],"split_type":[0,0,0,0,0,0,0,0,0,0,0,0,0,0,0,0,0,0,0],"sum_hessian":[5.576433E3,2.3987168E3,3.177716E3,2.3663997E3,3.2317318E1,2.7433025E3,4.3441357E2,1.9801252E3,3.8627423E2,2.8284372E1,4.0329432E0,1.1997327E0,3.8507452E2,5.0341732E1,3.347328E2,4.8718002E1,1.6237302E0,1.727277E2,1.6200508E2],"tree_param":{"num_deleted":"0","num_feature":"10","num_nodes":"19","size_leaf_vector":"1"}},